{
  "alice": {
    "layers": [
      {
        "weights": [
          [
            -0.12630301713943481,
            -0.12463927268981934,
            0.1307625025510788,
            0.08088450133800507,
            -0.22389386594295502,
            -0.2288566380739212,
            -0.1698279082775116,
            0.17118997871875763,
            0.07093015313148499,
            -0.2780854105949402,
            -0.02858748473227024,
            -0.10261760652065277,
            0.3090869188308716,
            -0.020288366824388504,
            0.02827385812997818,
            0.2179456502199173,
            0.06019272282719612,
            0.027501042932271957,
            0.24379371106624603,
            -0.048633839935064316,
            0.15919199585914612,
            -0.16277526319026947,
            -0.13777752220630646,
            0.12171448767185211,
            0.07918111979961395,
            0.13437433540821075,
            -0.24378108978271484,
            0.30363449454307556,
            0.19757810235023499,
            0.10333181172609329,
            0.11156723648309708,
            0.21052458882331848,
            -0.05078556761145592,
            0.1625308394432068,
            0.05063866078853607,
            0.07241185009479523,
            0.09123440831899643,
            0.11976289004087448,
            0.1644035428762436,
            0.16501925885677338,
            -0.05693604797124863,
            -0.021504592150449753,
            -0.054379913955926895,
            -0.026805931702256203
          ],
          [
            -0.018850253894925117,
            -0.1624089628458023,
            0.02676992677152157,
            0.19970062375068665,
            0.015261269174516201,
            0.20250216126441956,
            -0.05134684219956398,
            -0.03229022026062012,
            -0.13595442473888397,
            0.17445042729377747,
            0.2579948902130127,
            0.2446119785308838,
            0.19695311784744263,
            0.08588464558124542,
            0.08737179636955261,
            0.1664993166923523,
            0.11765992641448975,
            0.16457249224185944,
            -0.008182334713637829,
            0.1992240846157074,
            -0.05239741876721382,
            0.11316093802452087,
            0.19836033880710602,
            0.01520642638206482,
            -0.1798224002122879,
            -0.08642369508743286,
            -0.29445233941078186,
            0.12917645275592804,
            -0.12386893481016159,
            -0.18030677735805511,
            -0.12790195643901825,
            0.08962210267782211,
            0.14341574907302856,
            -0.06467721611261368,
            -0.007664728444069624,
            -0.01811346411705017,
            0.020270545035600662,
            -0.06634322553873062,
            0.015149161219596863,
            -0.09965671598911285,
            -0.054437410086393356,
            0.079065702855587,
            0.07417765259742737,
            0.09290894865989685
          ],
          [
            0.07070626318454742,
            -0.09918397665023804,
            0.0301436148583889,
            0.2900853157043457,
            -0.10768343508243561,
            -0.11420811712741852,
            0.14718593657016754,
            -0.04695218428969383,
            -0.19265666604042053,
            0.14996854960918427,
            0.2548483908176422,
            0.17317374050617218,
            0.27408578991889954,
            -0.03985981643199921,
            -0.14010608196258545,
            -0.1802893579006195,
            -0.21463996171951294,
            0.3322318494319916,
            0.1586236208677292,
            -0.1323363184928894,
            0.17138560116291046,
            -0.05831840634346008,
            0.2521621882915497,
            0.2018156200647354,
            -0.12312479317188263,
            0.018373573198914528,
            -0.015222301706671715,
            0.12199345976114273,
            -0.0016552602173760533,
            -0.10723850131034851,
            -0.06073697656393051,
            -0.054147206246852875,
            -0.10329434275627136,
            -0.04385221749544144,
            -0.11896194517612457,
            0.11341407150030136,
            0.24014557898044586,
            0.0449322834610939,
            -0.009063531644642353,
            0.12256209552288055,
            -0.04158831387758255,
            -0.04304690286517143,
            0.049043476581573486,
            0.013408716768026352
          ],
          [
            -0.0053619383834302425,
            0.06614860147237778,
            0.179859921336174,
            -0.1723165214061737,
            0.052073586732149124,
            0.049364086240530014,
            0.12506259977817535,
            -0.1964409053325653,
            0.08724165707826614,
            0.1511298418045044,
            -0.1829584687948227,
            -0.10860589146614075,
            0.011679008603096008,
            -0.0288239773362875,
            0.07538288831710815,
            0.09049618244171143,
            -0.22515113651752472,
            0.22442129254341125,
            0.048167962580919266,
            0.26068082451820374,
            0.00951649434864521,
            0.14488522708415985,
            0.03949911519885063,
            -0.07714919745922089,
            -0.06730084121227264,
            -0.16426146030426025,
            0.03234712406992912,
            0.0601796954870224,
            -0.25790467858314514,
            0.08224258571863174,
            -0.07912585139274597,
            0.16765077412128448,
            0.07588183879852295,
            0.01776065118610859,
            0.11419232189655304,
            0.025768417865037918,
            0.14603188633918762,
            0.17083728313446045,
            -0.12096821516752243,
            0.1918691098690033,
            0.04607332870364189,
            0.13494807481765747,
            0.1755332052707672,
            0.24201881885528564
          ],
          [
            0.21911127865314484,
            -0.037184953689575195,
            0.1288893222808838,
            -0.03787330910563469,
            0.01764613762497902,
            -0.015781739726662636,
            -0.15891356766223907,
            0.2806650996208191,
            -0.1578952521085739,
            -0.018872369080781937,
            0.15499098598957062,
            -0.07184115052223206,
            0.07559908926486969,
            0.15857824683189392,
            -0.11409027874469757,
            -0.20062710344791412,
            0.145850270986557,
            0.014769482426345348,
            -0.2083280086517334,
            0.2764860987663269,
            0.1626492142677307,
            -0.1259249746799469,
            0.05620139464735985,
            -0.06281750649213791,
            0.2648591101169586,
            0.09222187101840973,
            -0.24796034395694733,
            0.23897865414619446,
            -0.073234423995018,
            -0.09746375679969788,
            0.15169431269168854,
            0.09235238283872604,
            -0.1927499920129776,
            0.27687907218933105,
            0.28914621472358704,
            -0.2358691692352295,
            -0.17347534000873566,
            0.24668675661087036,
            0.3104182183742523,
            0.2215953767299652,
            0.09714944660663605,
            0.21852265298366547,
            0.18149393796920776,
            -0.17046160995960236
          ],
          [
            0.03559676557779312,
            0.20100533962249756,
            0.27959656715393066,
            0.1922207921743393,
            0.1727408617734909,
            -0.051322996616363525,
            0.18527060747146606,
            -0.1110658198595047,
            -0.016837699338793755,
            0.018391713500022888,
            0.15844978392124176,
            0.16148030757904053,
            -0.1453610211610794,
            -0.07401502877473831,
            0.15306751430034637,
            -0.10114027559757233,
            -0.18166308104991913,
            0.22050055861473083,
            0.13485965132713318,
            0.04002704471349716,
            -0.14521750807762146,
            0.15629443526268005,
            0.15533635020256042,
            0.11846436560153961,
            -0.10664865374565125,
            -0.32705849409103394,
            0.23969310522079468,
            -0.2562609612941742,
            0.09265870600938797,
            0.033536698669195175,
            -0.005661182105541229,
            -0.07956621795892715,
            -0.16520582139492035,
            0.058870378881692886,
            0.052144214510917664,
            0.10604099184274673,
            -0.13405916094779968,
            0.18042504787445068,
            -0.01826411671936512,
            0.1800106316804886,
            0.16811998188495636,
            0.11332917958498001,
            -0.1351490318775177,
            0.07417162507772446
          ],
          [
            -0.15108177065849304,
            0.11282866448163986,
            -0.11721242219209671,
            0.2216944694519043,
            -0.03991123288869858,
            -0.14611482620239258,
            -0.05995374545454979,
            0.011447761207818985,
            0.11764019727706909,
            -0.11854390054941177,
            0.053317952901124954,
            0.21615582704544067,
            0.0700678825378418,
            -0.025627771392464638,
            0.10995935648679733,
            -0.0990954264998436,
            -0.12734350562095642,
            0.1473120003938675,
            0.25996142625808716,
            -0.2397555410861969,
            -0.14989574253559113,
            -0.17374536395072937,
            -0.0778406634926796,
            0.3273777365684509,
            -0.10348321497440338,
            0.18751932680606842,
            0.15894822776317596,
            0.21157991886138916,
            0.28621307015419006,
            -0.027859166264533997,
            0.0881897434592247,
            0.07626602053642273,
            -0.0161025058478117,
            -0.03595623001456261,
            -0.03722567483782768,
            0.26161280274391174,
            0.06400731205940247,
            0.22097469866275787,
            0.02224934659898281,
            0.08904144167900085,
            -0.05318161100149155,
            -0.125460684299469,
            -0.09995678067207336,
            0.15229180455207825
          ],
          [
            -0.24948914349079132,
            0.10599949210882187,
            -0.0334644615650177,
            -0.11160686612129211,
            -0.11366524547338486,
            0.14969417452812195,
            0.10091999918222427,
            0.11679800599813461,
            -0.01839256100356579,
            0.026823485270142555,
            -0.23987704515457153,
            -0.12206244468688965,
            0.0027168921660631895,
            0.018344931304454803,
            0.0010044368682429194,
            -0.29799121618270874,
            0.25734466314315796,
            0.0451749749481678,
            0.21823503077030182,
            0.07129183411598206,
            -0.15329942107200623,
            0.05631183832883835,
            0.12346667796373367,
            0.012299076654016972,
            0.05452030152082443,
            0.15067167580127716,
            -0.25369542837142944,
            0.22069521248340607,
            0.03682902455329895,
            0.11568142473697662,
            0.12894664704799652,
            0.023763541132211685,
            0.07470684498548508,
            0.15138652920722961,
            -0.021375684067606926,
            -0.10997697710990906,
            0.01070487406104803,
            -0.05176671966910362,
            0.12808357179164886,
            0.012345956638455391,
            0.04000087082386017,
            -0.039142582565546036,
            0.10608405619859695,
            0.13250254094600677
          ],
          [
            0.14985893666744232,
            0.11980565637350082,
            -0.21411365270614624,
            -0.08420352637767792,
            0.21998253464698792,
            0.05350859463214874,
            0.11321152746677399,
            0.1535061001777649,
            0.048012930899858475,
            0.1302707940340042,
            0.07773607224225998,
            -0.001824553357437253,
            0.005559149198234081,
            0.12063878029584885,
            0.14579373598098755,
            -0.07044468820095062,
            -0.157935231924057,
            -0.2517828345298767,
            0.05845043435692787,
            0.08524308353662491,
            0.2555474638938904,
            0.014664213173091412,
            0.1043412908911705,
            -0.27238428592681885,
            -0.07979512214660645,
            0.1060081347823143,
            0.10928764939308167,
            -0.2944304347038269,
            0.21816425025463104,
            -0.05069829523563385,
            0.10120362043380737,
            0.09182971715927124,
            0.12203877419233322,
            -0.02134430967271328,
            0.17384567856788635,
            0.15182539820671082,
            -0.05391731113195419,
            0.04334019124507904,
            0.08631347119808197,
            0.047648001462221146,
            0.06994662433862686,
            -0.09983158111572266,
            -0.12359823286533356,
            -0.042431820183992386
          ],
          [
            -0.17839384078979492,
            0.3088977336883545,
            0.1843220442533493,
            0.04079285264015198,
            0.21832886338233948,
            0.206907719373703,
            0.1313827633857727,
            0.021853255107998848,
            0.023395705968141556,
            0.102818563580513,
            0.15498071908950806,
            0.1908338963985443,
            0.10603368282318115,
            -0.06981604546308517,
            -0.08602260798215866,
            -0.16164955496788025,
            0.11887186765670776,
            0.021928058937191963,
            -0.025730811059474945,
            0.16893167793750763,
            -0.17528173327445984,
            0.2324449121952057,
            0.12216143310070038,
            0.22133024036884308,
            -0.24372494220733643,
            -0.11351673305034637,
            -0.24615110456943512,
            0.0960821658372879,
            -0.0925498977303505,
            -0.05997588858008385,
            0.06915226578712463,
            0.1224312037229538,
            0.14510080218315125,
            -0.05071696639060974,
            0.05695359408855438,
            -0.15646028518676758,
            -0.0804855078458786,
            -0.1257198452949524,
            0.08294830471277237,
            0.09324286878108978,
            -0.019299937412142754,
            -0.012808602303266525,
            0.08716525137424469,
            0.04621867090463638
          ],
          [
            0.26965248584747314,
            -0.24746859073638916,
            0.2506753206253052,
            -0.2270388901233673,
            -0.05589877814054489,
            0.008299121633172035,
            0.08789414167404175,
            0.14093360304832458,
            0.2564810812473297,
            0.01528905052691698,
            -0.06305740028619766,
            0.016293400898575783,
            -0.09447737038135529,
            0.24292074143886566,
            -0.20508018136024475,
            0.19497577846050262,
            0.17202253639698029,
            -0.22407764196395874,
            -0.3525848090648651,
            -0.09493780881166458,
            0.08683513849973679,
            -0.06692800670862198,
            0.13585348427295685,
            -0.10450134426355362,
            0.10250727832317352,
            0.16175563633441925,
            0.2174251526594162,
            -0.015178553760051727,
            -0.06574050337076187,
            0.02034783363342285,
            0.017068998888134956,
            0.05806485936045647,
            0.08294931054115295,
            0.18575753271579742,
            0.08081188052892685,
            -0.06203658506274223,
            -0.012917223386466503,
            0.09913105517625809,
            0.014641635119915009,
            0.01484944298863411,
            0.15479865670204163,
            0.08415370434522629,
            -0.01520439051091671,
            0.08085328340530396
          ],
          [
            0.22447967529296875,
            0.228079155087471,
            0.2079850733280182,
            -0.04710826277732849,
            0.10329427570104599,
            -0.23908579349517822,
            -0.032333988696336746,
            -0.007668978068977594,
            0.17631056904792786,
            -0.14018066227436066,
            0.0461948998272419,
            0.05652431771159172,
            0.13994793593883514,
            -0.05566196143627167,
            0.19702863693237305,
            -0.2770824432373047,
            -0.16974030435085297,
            -0.18859738111495972,
            0.19469355046749115,
            -0.012920927256345749,
            -0.09675423800945282,
            -0.17186801135540009,
            -0.29390668869018555,
            0.22583907842636108,
            0.1276358813047409,
            -0.014943474903702736,
            0.056804414838552475,
            -0.19207634031772614,
            0.21449150145053864,
            0.19510486721992493,
            0.0415046401321888,
            0.2005520612001419,
            -0.07632628083229065,
            -0.1074296161532402,
            0.22647956013679504,
            0.11321888864040375,
            0.16083578765392303,
            0.32007521390914917,
            0.14865097403526306,
            0.3018406331539154,
            0.1011705994606018,
            0.07410843670368195,
            0.12359998375177383,
            0.019100109115242958
          ],
          [
            -0.07840993255376816,
            0.1391068696975708,
            0.009614597074687481,
            -0.09259703010320663,
            0.027048742398619652,
            -0.14762543141841888,
            -0.03570941463112831,
            0.07704135030508041,
            0.22799935936927795,
            -0.1885141283273697,
            0.11206524819135666,
            -0.04992173984646797,
            -0.11874059587717056,
            -0.13026940822601318,
            0.11120393872261047,
            -0.0494011752307415,
            -0.23385171592235565,
            -0.17662444710731506,
            0.1284721940755844,
            0.18740224838256836,
            0.037180401384830475,
            -0.01106299925595522,
            -0.23270072042942047,
            0.01493796519935131,
            -0.2198457568883896,
            0.1925860345363617,
            0.19419240951538086,
            0.10965348780155182,
            0.16352424025535583,
            0.1796794980764389,
            0.14218315482139587,
            -0.02245556004345417,
            -0.1145377978682518,
            0.060127176344394684,
            0.15796348452568054,
            0.20974071323871613,
            0.11186417937278748,
            0.16024398803710938,
            0.016214050352573395,
            0.009978720918297768,
            -0.06143816187977791,
            0.09189032018184662,
            0.07009026408195496,
            0.08358766883611679
          ],
          [
            -0.15818452835083008,
            0.0954613909125328,
            -0.15773621201515198,
            -0.010123956948518753,
            -0.14480489492416382,
            0.22632953524589539,
            0.16337168216705322,
            0.10062289237976074,
            0.05578498914837837,
            -0.0643145889043808,
            -0.076443150639534,
            0.08476176112890244,
            0.1957288384437561,
            -0.07230576127767563,
            -0.11910740286111832,
            0.18927432596683502,
            0.08382008224725723,
            0.22418805956840515,
            -0.042242202907800674,
            0.027925780043005943,
            -0.036799054592847824,
            0.1670331507921219,
            -0.07175503671169281,
            0.02936345525085926,
            0.01827750913798809,
            0.010816678404808044,
            -0.1931329071521759,
            0.28573957085609436,
            -0.05111534148454666,
            -0.06570655852556229,
            0.01075452659279108,
            0.07060395181179047,
            0.07205654680728912,
            0.17177194356918335,
            0.04069976136088371,
            0.047287892550230026,
            0.030269155278801918,
            0.09954290837049484,
            -0.1159776821732521,
            -0.015730073675513268,
            -0.1033259928226471,
            0.09056366235017776,
            0.1377507448196411,
            0.10466466099023819
          ],
          [
            -0.024212932214140892,
            0.04132211208343506,
            0.0357048399746418,
            -0.04764845222234726,
            0.07706663012504578,
            0.1568196713924408,
            0.03747980669140816,
            -0.05674891918897629,
            -0.06502328813076019,
            -0.05690503492951393,
            -0.19714492559432983,
            -0.1929492950439453,
            0.010606275871396065,
            0.051533207297325134,
            -0.25849926471710205,
            0.293026328086853,
            0.3303784132003784,
            -0.0012797601521015167,
            -0.18972955644130707,
            -0.0436086505651474,
            0.2188452035188675,
            0.1230878233909607,
            -0.009944663383066654,
            -0.04004630073904991,
            0.11886542290449142,
            -0.10709696263074875,
            0.2191178947687149,
            0.015950387343764305,
            0.08513328433036804,
            -0.03627326712012291,
            0.09946276247501373,
            -0.04579896479845047,
            0.13561950623989105,
            0.08163900673389435,
            0.05730865150690079,
            0.10439735651016235,
            0.04067014902830124,
            -0.22447682917118073,
            -0.11213493347167969,
            -0.13928095996379852,
            -0.009540587663650513,
            0.12792806327342987,
            -0.015980159863829613,
            -0.034373845905065536
          ],
          [
            -0.1490934044122696,
            -0.0907001718878746,
            0.0913248360157013,
            0.03873918950557709,
            0.24503716826438904,
            -0.194930300116539,
            0.02683405950665474,
            -0.3070881962776184,
            0.18528446555137634,
            0.11921721696853638,
            0.04082156717777252,
            -0.08193482458591461,
            -0.07820416241884232,
            -0.16828621923923492,
            -0.08092963695526123,
            0.1474156528711319,
            -0.25581032037734985,
            0.1495855301618576,
            -0.1822928786277771,
            -0.1361706405878067,
            -0.019068049266934395,
            -0.015153664164245129,
            -0.049800097942352295,
            0.1330586075782776,
            -0.07856132090091705,
            0.18261131644248962,
            0.2823208272457123,
            0.11196959018707275,
            0.021843791007995605,
            0.11059119552373886,
            0.06011093780398369,
            0.1683003157377243,
            -0.07821176201105118,
            -0.01716112531721592,
            -0.14829060435295105,
            0.1607024073600769,
            0.00797555223107338,
            0.005504826083779335,
            0.05967240408062935,
            0.150798499584198,
            0.13042008876800537,
            0.16401085257530212,
            0.004427071660757065,
            0.11947213858366013
          ],
          [
            0.22621850669384003,
            0.19683443009853363,
            0.15134412050247192,
            0.16338226199150085,
            0.213279128074646,
            0.07781369239091873,
            0.18417608737945557,
            -0.024199489504098892,
            -0.14468418061733246,
            0.27365434169769287,
            -0.1446894258260727,
            0.10086739808320999,
            -0.14008969068527222,
            0.00043613597517833114,
            -0.02144276537001133,
            0.018404629081487656,
            -0.10905583947896957,
            0.028935540467500687,
            -0.16231609880924225,
            0.14154502749443054,
            0.18017180263996124,
            0.30700352787971497,
            -0.111110620200634,
            -0.29190054535865784,
            -0.25240957736968994,
            -0.00935831293463707,
            0.054312169551849365,
            0.062384914606809616,
            -0.14476658403873444,
            -0.04632163047790527,
            0.15483370423316956,
            0.08162164688110352,
            -0.03370492905378342,
            0.24298864603042603,
            0.016002895310521126,
            -0.10549356788396835,
            0.0609886571764946,
            -0.09777470678091049,
            0.07376207411289215,
            -0.014894865453243256,
            0.07189800590276718,
            0.09298714995384216,
            0.02217872068285942,
            0.22046639025211334
          ],
          [
            -0.10010982304811478,
            -0.14087262749671936,
            0.2588310241699219,
            0.14199233055114746,
            -0.0038865390233695507,
            0.011993912048637867,
            0.17818692326545715,
            -0.14458172023296356,
            0.19915395975112915,
            -0.13455480337142944,
            -0.04001143202185631,
            -0.10084252804517746,
            -0.23646113276481628,
            0.04067398980259895,
            -0.12262864410877228,
            0.23141300678253174,
            0.1103554293513298,
            0.03421684354543686,
            0.10814713686704636,
            -0.12359461933374405,
            -0.12810447812080383,
            -0.20019760727882385,
            0.041424769908189774,
            0.06421952694654465,
            -0.006441253703087568,
            0.1312965303659439,
            0.0525071807205677,
            0.08898860961198807,
            -0.16200372576713562,
            0.02868209034204483,
            -0.11308033764362335,
            0.21182464063167572,
            -0.14236700534820557,
            0.09105581790208817,
            0.1323065608739853,
            -0.009354439564049244,
            -0.050606440752744675,
            0.23494015634059906,
            -0.09146198630332947,
            0.17804506421089172,
            0.07858610153198242,
            0.18060767650604248,
            0.13404126465320587,
            0.12074501812458038
          ],
          [
            -0.14547601342201233,
            0.24702443182468414,
            0.23470449447631836,
            0.16294008493423462,
            0.18258950114250183,
            0.1729556769132614,
            -0.12902605533599854,
            0.11334260553121567,
            0.1960120052099228,
            0.03799214959144592,
            0.1685495376586914,
            -0.11765380203723907,
            -0.08033449202775955,
            -0.03528563305735588,
            -0.02018789015710354,
            -0.11946570873260498,
            -0.2594141364097595,
            0.050458766520023346,
            -0.188085675239563,
            0.05678630992770195,
            -0.1525050848722458,
            0.06576496362686157,
            0.1937844157218933,
            0.08243779838085175,
            -0.11878004670143127,
            -0.15453022718429565,
            -0.03526914119720459,
            0.05223488807678223,
            -0.1115102544426918,
            0.13501939177513123,
            -0.05907462164759636,
            0.14855782687664032,
            0.0571276918053627,
            0.023615293204784393,
            0.05821804329752922,
            -0.001774714095517993,
            -0.013990534469485283,
            -0.06515166908502579,
            -0.18471179902553558,
            0.03514415770769119,
            -0.026512760668992996,
            0.11515549570322037,
            -0.05701489374041557,
            0.028360852971673012
          ],
          [
            0.10455593466758728,
            -0.03015371784567833,
            0.07499997317790985,
            0.018898855894804,
            0.13343793153762817,
            -0.10959617048501968,
            0.005932879168540239,
            0.002218524692580104,
            -0.02976604551076889,
            0.2152794748544693,
            -0.033929090946912766,
            -0.1253187507390976,
            0.15611353516578674,
            0.21936866641044617,
            -0.06278533488512039,
            0.19602276384830475,
            0.16811133921146393,
            -0.004923902451992035,
            -0.024109596386551857,
            -0.14869537949562073,
            -0.13734954595565796,
            -0.1628546267747879,
            0.3398320972919464,
            0.07695682346820831,
            0.17871077358722687,
            0.041227590292692184,
            0.1541564166545868,
            -0.037919968366622925,
            0.062051404267549515,
            -0.00238015572540462,
            0.08436032384634018,
            0.005971780978143215,
            0.11476219445466995,
            0.12598733603954315,
            -0.010313684120774269,
            -0.046540990471839905,
            -0.19758176803588867,
            -0.08829442411661148,
            0.13495424389839172,
            -0.10421152412891388,
            0.07094287872314453,
            -0.15714813768863678,
            -0.08653315901756287,
            -0.08152549713850021
          ],
          [
            -0.16295823454856873,
            0.23076379299163818,
            -0.012205841019749641,
            -0.0967404767870903,
            -0.2071339339017868,
            -0.2646026909351349,
            -0.11991588771343231,
            -0.1824796348810196,
            0.18542148172855377,
            -0.02355227991938591,
            -0.059308744966983795,
            0.08957605808973312,
            0.07230374217033386,
            0.10370069742202759,
            0.002970126224681735,
            -0.04936622828245163,
            -0.12725575268268585,
            -0.11264379322528839,
            -0.007827293127775192,
            0.05182221159338951,
            -0.06719443947076797,
            0.013599194586277008,
            -0.03175918012857437,
            0.13912582397460938,
            0.13151156902313232,
            -0.04123242199420929,
            0.06780900806188583,
            -0.04729345440864563,
            0.29848769307136536,
            0.008978383615612984,
            0.10134000331163406,
            0.11951659619808197,
            0.01691225916147232,
            -0.0810520350933075,
            0.07893326878547668,
            0.15751463174819946,
            0.16897666454315186,
            0.012361079454421997,
            0.1642666757106781,
            0.042394008487463,
            0.17623771727085114,
            0.05680735036730766,
            -0.12013860046863556,
            0.18241146206855774
          ],
          [
            0.04514823481440544,
            -0.000826283183414489,
            0.1759779006242752,
            0.0015835106605663896,
            -0.11313772201538086,
            -0.28047752380371094,
            0.04526038467884064,
            -0.25351741909980774,
            0.024342313408851624,
            0.037757858633995056,
            -0.0423954539000988,
            -0.03004966676235199,
            0.17346373200416565,
            0.015109234489500523,
            0.02199491299688816,
            -0.005340148229151964,
            -0.176215261220932,
            0.18096938729286194,
            0.24055133759975433,
            -0.17863166332244873,
            -0.01967591792345047,
            -0.19158978760242462,
            0.060890089720487595,
            -0.04914719611406326,
            0.16272710263729095,
            0.22729332745075226,
            0.20062454044818878,
            0.07977160811424255,
            0.17716966569423676,
            -0.01800723560154438,
            -0.035214949399232864,
            0.20084038376808167,
            -0.12669168412685394,
            0.047531478106975555,
            0.18024244904518127,
            0.03167935460805893,
            -0.12180130928754807,
            0.2758089601993561,
            0.1862485408782959,
            0.05048106983304024,
            0.12100163847208023,
            0.13547973334789276,
            -0.13211697340011597,
            0.009167605079710484
          ],
          [
            0.17779605090618134,
            0.03516802191734314,
            -0.004383735824376345,
            0.034453731030225754,
            0.0637795478105545,
            -0.29668405652046204,
            -0.17237402498722076,
            -0.16175954043865204,
            -0.08311804383993149,
            0.14891181886196136,
            0.15507501363754272,
            -0.07416199147701263,
            0.14977797865867615,
            0.1616327464580536,
            0.044690076261758804,
            -0.23133708536624908,
            -0.1744285374879837,
            0.11882352083921432,
            0.08237887173891068,
            0.015914445742964745,
            0.12445876002311707,
            -0.0020947556477040052,
            0.26424774527549744,
            -0.14130057394504547,
            0.21098291873931885,
            0.11719143390655518,
            0.019410936161875725,
            -0.061230774968862534,
            -0.08948671072721481,
            0.029494645074009895,
            -0.1374887228012085,
            0.08044920861721039,
            -0.04226050153374672,
            -0.06632548570632935,
            0.006871596910059452,
            -0.10345876961946487,
            0.15117691457271576,
            0.193179190158844,
            0.16560134291648865,
            0.10315316170454025,
            0.08610154688358307,
            0.020004604011774063,
            0.052194744348526,
            0.007921000942587852
          ],
          [
            0.24732783436775208,
            0.11730802059173584,
            0.028451554477214813,
            -0.2590147852897644,
            0.2581613063812256,
            0.23601694405078888,
            0.08659099787473679,
            0.24835805594921112,
            0.016268854960799217,
            0.12071510404348373,
            -0.08254308253526688,
            0.14678701758384705,
            -0.23248597979545593,
            -0.037410885095596313,
            -0.14634650945663452,
            0.06533588469028473,
            0.1487554907798767,
            -0.1559147834777832,
            -0.14193838834762573,
            0.05592767894268036,
            -0.08930852264165878,
            0.09096400439739227,
            0.029694154858589172,
            0.022643953561782837,
            0.18425138294696808,
            0.09036458283662796,
            0.16134659945964813,
            -0.01185877900570631,
            0.08468244224786758,
            -0.06696338951587677,
            0.013796812854707241,
            -0.13402093946933746,
            0.09039625525474548,
            0.08351736515760422,
            -0.02748861350119114,
            -0.1296335905790329,
            -0.09435763210058212,
            -0.07660973817110062,
            0.11354091763496399,
            -0.07130096852779388,
            -0.03415152430534363,
            -0.08323697745800018,
            -0.039772775024175644,
            0.15637196600437164
          ],
          [
            0.041693735867738724,
            0.2158571183681488,
            0.06234528124332428,
            0.17616331577301025,
            -0.39315372705459595,
            0.06883466243743896,
            0.03172191604971886,
            -0.09520339220762253,
            0.22504860162734985,
            0.21268990635871887,
            -0.046397238969802856,
            0.29801955819129944,
            0.2444450855255127,
            -0.053715478628873825,
            0.04433155804872513,
            -0.06035468727350235,
            -0.16117015480995178,
            0.12394646555185318,
            0.30076223611831665,
            0.10283637791872025,
            -0.017032749950885773,
            -0.09091106057167053,
            0.24238400161266327,
            0.20857100188732147,
            -0.28448057174682617,
            -0.08539227396249771,
            -0.12232309579849243,
            0.05238807946443558,
            0.01875363476574421,
            -0.061047885566949844,
            0.01488504372537136,
            -0.08622843772172928,
            -0.08420509845018387,
            0.09828077256679535,
            -0.11884148418903351,
            0.0920858383178711,
            -0.08410800993442535,
            -0.05661151558160782,
            0.08357194066047668,
            -0.01931059919297695,
            -0.01374770700931549,
            -0.006079713813960552,
            0.09302881360054016,
            -0.07309293001890182
          ],
          [
            -0.2383081018924713,
            0.2286916822195053,
            -0.07137428224086761,
            -0.38457614183425903,
            -0.060440052300691605,
            0.2973319888114929,
            0.48566126823425293,
            0.14328551292419434,
            0.21093741059303284,
            -0.0777197927236557,
            -0.04200354963541031,
            0.012826012447476387,
            -0.028754083439707756,
            -0.03166382759809494,
            -0.10507654398679733,
            0.12602365016937256,
            0.2353462278842926,
            -0.1286725401878357,
            0.24611882865428925,
            -0.033941689878702164,
            -0.06525526940822601,
            0.024742670357227325,
            -0.4237276315689087,
            -0.06689213216304779,
            0.12435483187437057,
            0.15763941407203674,
            0.06185050308704376,
            0.33431434631347656,
            0.040407221764326096,
            -0.043652601540088654,
            0.11919151246547699,
            0.13366146385669708,
            0.14400164783000946,
            0.09073490649461746,
            0.00597557844594121,
            0.12005207687616348,
            0.0362672433257103,
            -0.08559133857488632,
            0.0022351390216499567,
            0.08256340771913528,
            -0.08970857411623001,
            -0.0701230838894844,
            0.019818607717752457,
            0.22996102273464203
          ],
          [
            0.08483290672302246,
            0.20725014805793762,
            0.21016792953014374,
            -0.038010817021131516,
            0.021255044266581535,
            -0.014039791189134121,
            0.06772465258836746,
            -0.2377266138792038,
            0.018497757613658905,
            0.09698322415351868,
            -0.292204886674881,
            0.20788750052452087,
            0.31973201036453247,
            -0.2136623114347458,
            0.1749943643808365,
            -0.0645727813243866,
            -0.08091284334659576,
            0.24328458309173584,
            0.15278933942317963,
            0.04963855445384979,
            -0.02297435887157917,
            0.22880694270133972,
            0.15263031423091888,
            0.09005039185285568,
            -0.208449587225914,
            -0.18328967690467834,
            -0.18409323692321777,
            -0.1769777089357376,
            -0.10128993541002274,
            -0.05766234174370766,
            -0.025869255885481834,
            0.029857773333787918,
            0.14997419714927673,
            -0.11029208451509476,
            -0.02970108762383461,
            0.07488842308521271,
            0.10870131850242615,
            -0.07695963978767395,
            0.04791540279984474,
            0.06534838676452637,
            0.12257005274295807,
            0.18397606909275055,
            0.16518200933933258,
            0.19914698600769043
          ],
          [
            -0.14850518107414246,
            0.003100561909377575,
            0.056221865117549896,
            0.07410596311092377,
            -0.1415787935256958,
            0.16466718912124634,
            0.09584157913923264,
            0.0608585886657238,
            0.0691462978720665,
            0.030773120000958443,
            -0.08328302204608917,
            0.11033330857753754,
            0.08600487560033798,
            -0.1772112399339676,
            -0.06790300458669662,
            -0.06128964200615883,
            0.13479454815387726,
            0.047462739050388336,
            0.0024465557653456926,
            0.2396734058856964,
            -0.11680961400270462,
            0.11627639085054398,
            0.1877102106809616,
            -0.1821916252374649,
            -0.11445082724094391,
            -0.13884113729000092,
            -0.10980276018381119,
            0.16002264618873596,
            -0.08427734673023224,
            0.06492596119642258,
            -0.013603627681732178,
            0.10694831609725952,
            0.072562076151371,
            0.09446800500154495,
            0.051855772733688354,
            -0.015113696455955505,
            0.12871518731117249,
            0.05333896353840828,
            -0.02916043996810913,
            0.09309092164039612,
            0.05210137367248535,
            -0.0005921359406784177,
            0.057745032012462616,
            0.06832578778266907
          ],
          [
            0.19292286038398743,
            -0.04633238911628723,
            0.1975320428609848,
            0.14263851940631866,
            -0.0997682586312294,
            -0.24519473314285278,
            0.0037682591937482357,
            -0.236407071352005,
            0.24704541265964508,
            0.0434836819767952,
            0.024590913206338882,
            0.11854507029056549,
            0.007553823757916689,
            0.030747845768928528,
            -0.20402510464191437,
            0.3472292423248291,
            -0.10143889486789703,
            0.11726988852024078,
            -0.004350439179688692,
            0.05502951145172119,
            0.22318926453590393,
            -0.23350727558135986,
            0.04982229322195053,
            0.01665927842259407,
            0.20480458438396454,
            0.13858631253242493,
            0.29139775037765503,
            -0.1892857402563095,
            -0.08337286114692688,
            -0.005378467496484518,
            -0.017414582893252373,
            0.04326131194829941,
            0.08080032467842102,
            -0.1586366444826126,
            -0.10798389464616776,
            -0.007029769942164421,
            -0.05537192523479462,
            0.02736731804907322,
            -0.11175356805324554,
            -0.018582502380013466,
            -0.0531623475253582,
            0.043561555445194244,
            0.09469255059957504,
            0.02430935762822628
          ],
          [
            0.041496917605400085,
            -0.27463671565055847,
            0.07995722442865372,
            0.15403957664966583,
            -0.266618937253952,
            0.20396098494529724,
            -0.18971490859985352,
            0.012640531174838543,
            0.06691024452447891,
            0.14913064241409302,
            0.08098886162042618,
            0.03698616847395897,
            0.17662066221237183,
            -0.14267487823963165,
            -0.09528623521327972,
            0.17667242884635925,
            0.046828340739011765,
            0.13566066324710846,
            -0.04700526222586632,
            0.19980978965759277,
            0.23791265487670898,
            0.09831362217664719,
            0.2958475351333618,
            0.06417524814605713,
            -0.1297810971736908,
            0.05721928924322128,
            -0.23275725543498993,
            0.04623579606413841,
            -0.014271636493504047,
            0.05653233081102371,
            0.05071733891963959,
            0.02784169279038906,
            -0.001023132586851716,
            0.13224036991596222,
            0.027523528784513474,
            -0.17988774180412292,
            -0.10547034442424774,
            -0.0528685636818409,
            0.10888636857271194,
            0.03931431472301483,
            0.11579669266939163,
            0.053750019520521164,
            0.09722612053155899,
            0.041407205164432526
          ],
          [
            -0.0420769602060318,
            -0.22245672345161438,
            0.17879381775856018,
            0.24717529118061066,
            -0.16244183480739594,
            0.15250477194786072,
            -0.17219571769237518,
            0.10120907425880432,
            -0.042529456317424774,
            0.16275684535503387,
            0.028932077810168266,
            -0.11312450468540192,
            -0.09898833185434341,
            -0.13396717607975006,
            0.13650332391262054,
            0.0905367061495781,
            -0.20188847184181213,
            0.20930181443691254,
            0.14015166461467743,
            -0.21018092334270477,
            -0.005409278906881809,
            -0.011791383847594261,
            -0.011102894321084023,
            0.005357994697988033,
            -0.13728612661361694,
            -0.1100430116057396,
            0.037686657160520554,
            0.22253873944282532,
            0.1045190766453743,
            0.06330982595682144,
            0.03957214951515198,
            0.019172733649611473,
            0.112342968583107,
            -0.1657325178384781,
            0.02466338314116001,
            0.1595081090927124,
            0.09341517835855484,
            -0.04138637334108353,
            -0.10435651987791061,
            0.1687813550233841,
            -0.11844155192375183,
            -0.10060960799455643,
            0.06929129362106323,
            -0.02577420324087143
          ],
          [
            -0.0691714957356453,
            0.08097118884325027,
            0.07380541414022446,
            0.045723237097263336,
            -0.2329915463924408,
            0.04526107385754585,
            0.055952057242393494,
            0.011845221742987633,
            0.08379681408405304,
            0.04127588868141174,
            -0.08586952835321426,
            -0.059664417058229446,
            0.10013369470834732,
            -0.13066743314266205,
            -0.19595764577388763,
            0.1698099821805954,
            0.15154145658016205,
            0.029399016872048378,
            0.1576903760433197,
            0.1839829534292221,
            -0.011535337194800377,
            0.13928796350955963,
            0.12967053055763245,
            0.04640509933233261,
            -0.12445752322673798,
            -0.07947017252445221,
            -0.23045310378074646,
            0.15507343411445618,
            0.0042479382827878,
            0.01833084039390087,
            -0.0508788526058197,
            -0.043305132538080215,
            0.03961344063282013,
            0.10871631652116776,
            -0.015469365753233433,
            -0.20659208297729492,
            0.13166595995426178,
            -0.03558582067489624,
            0.07280442863702774,
            0.10691758245229721,
            -0.0182613767683506,
            0.19479265809059143,
            0.09274623543024063,
            0.00406661257147789
          ],
          [
            -0.20615988969802856,
            -0.02400856651365757,
            0.09478674829006195,
            0.1413653939962387,
            -0.06751682609319687,
            6.6585504100658e-05,
            0.1568131148815155,
            -0.0425184890627861,
            -0.09065324813127518,
            0.1376582682132721,
            -0.01770925149321556,
            0.16695921123027802,
            0.019859254360198975,
            0.07230842858552933,
            0.04950651153922081,
            -0.10463286191225052,
            -0.11670417338609695,
            0.2593414783477783,
            0.11552941054105759,
            -0.0661623477935791,
            -0.09699258953332901,
            0.198698490858078,
            -0.06506641954183578,
            -0.1417457014322281,
            0.1810140311717987,
            -0.023175165057182312,
            0.0771959125995636,
            0.10472618043422699,
            -0.13367247581481934,
            0.09075210988521576,
            -0.02184830605983734,
            0.06488490849733353,
            -0.13511130213737488,
            0.15522640943527222,
            -0.05682671442627907,
            -0.10498664528131485,
            0.04135153442621231,
            0.055452361702919006,
            0.06501266360282898,
            0.2457371950149536,
            -0.09723814576864243,
            0.029804686084389687,
            -0.039969321340322495,
            0.14081768691539764
          ],
          [
            0.0465104766190052,
            0.2523226737976074,
            -0.06749192625284195,
            -0.05847140774130821,
            0.036998432129621506,
            0.06311708688735962,
            -0.045290008187294006,
            0.12944765388965607,
            0.24777403473854065,
            0.1819729208946228,
            0.19488871097564697,
            -0.08125115185976028,
            -0.14070568978786469,
            0.2123836725950241,
            0.17493651807308197,
            0.11418338865041733,
            -0.027727315202355385,
            -0.19274097681045532,
            -0.08903425931930542,
            0.0019243750721216202,
            -0.10745058208703995,
            0.14085130393505096,
            0.038878656923770905,
            0.020384345203638077,
            0.1988620012998581,
            -0.04926731809973717,
            0.1615487039089203,
            -0.17683470249176025,
            0.17024177312850952,
            0.14039331674575806,
            -0.027160940691828728,
            -0.0108345877379179,
            0.024470040574669838,
            0.06166388839483261,
            0.1253635734319687,
            0.17375974357128143,
            -0.08856948465108871,
            -0.01637713611125946,
            0.12967213988304138,
            -0.12905395030975342,
            0.02788647636771202,
            -0.04325971379876137,
            -0.1902066171169281,
            0.008004174567759037
          ],
          [
            0.01611238159239292,
            -0.29880401492118835,
            0.23140887916088104,
            0.18825317919254303,
            -0.22472918033599854,
            -0.2974589169025421,
            0.01978914625942707,
            0.09175534546375275,
            0.28545644879341125,
            -0.10273508727550507,
            0.11732187122106552,
            -0.18162471055984497,
            -0.11802857369184494,
            0.047289032489061356,
            -0.07163218408823013,
            -0.047674745321273804,
            0.1430467963218689,
            0.0035371005069464445,
            0.15215933322906494,
            -0.06223073974251747,
            -0.07231517881155014,
            -0.07090313732624054,
            -0.0797400027513504,
            0.23365512490272522,
            0.030020225793123245,
            0.10632085055112839,
            0.0573483370244503,
            0.18869875371456146,
            0.19888857007026672,
            0.2057417631149292,
            -0.03678392618894577,
            0.23633059859275818,
            0.033149491995573044,
            0.09060647338628769,
            0.01570681482553482,
            0.1029006615281105,
            -0.008519578725099564,
            0.20733477175235748,
            0.08486947417259216,
            0.06969437003135681,
            0.07998188585042953,
            -0.07393936812877655,
            -0.11813105642795563,
            -0.09018559008836746
          ],
          [
            0.010378586128354073,
            -0.1593157947063446,
            0.364909827709198,
            0.13198722898960114,
            0.06992438435554504,
            0.033487606793642044,
            0.007395532913506031,
            -0.02808179333806038,
            -0.0008950652554631233,
            -0.07318172603845596,
            -0.14728334546089172,
            -0.1883109211921692,
            -0.0389447882771492,
            -0.04076414927840233,
            -0.05369384586811066,
            -0.030079668387770653,
            0.14837871491909027,
            0.13466811180114746,
            0.06309615075588226,
            0.1683594137430191,
            0.18009713292121887,
            0.028728138655424118,
            -0.09147290885448456,
            0.1284954994916916,
            -0.054486602544784546,
            -0.05032021924853325,
            -0.11521129310131073,
            0.26444241404533386,
            0.15912432968616486,
            0.1416739672422409,
            0.06135067716240883,
            0.09555532783269882,
            -0.011136534623801708,
            -0.14664845168590546,
            -0.1484447717666626,
            0.017187345772981644,
            0.14692220091819763,
            -0.09672597050666809,
            0.009150246158242226,
            0.0835350900888443,
            -0.04158709570765495,
            0.07573002576828003,
            -0.07472429424524307,
            0.20252354443073273
          ],
          [
            0.003425734583288431,
            0.13085199892520905,
            0.10182502865791321,
            0.040423791855573654,
            -0.11158527433872223,
            -0.05596315488219261,
            0.0994921550154686,
            -0.12404504418373108,
            0.09738858044147491,
            -0.047589220106601715,
            -0.09322638064622879,
            -0.26162096858024597,
            0.032100364565849304,
            0.043974101543426514,
            -0.019234471023082733,
            0.1600726842880249,
            0.014375676400959492,
            0.005100936163216829,
            0.10919169336557388,
            0.15008112788200378,
            -0.035749148577451706,
            0.013690219260752201,
            -0.3710145950317383,
            -0.1701854020357132,
            0.11350232362747192,
            0.08732805401086807,
            0.15764114260673523,
            0.2524265646934509,
            -0.12033521384000778,
            0.017366770654916763,
            0.08195792138576508,
            0.030472619459033012,
            -0.07527513056993484,
            0.14868208765983582,
            0.20492208003997803,
            -0.13378947973251343,
            0.18542039394378662,
            0.21382470428943634,
            0.15242783725261688,
            0.12177497148513794,
            0.02950703538954258,
            0.1641308218240738,
            0.12354244291782379,
            0.15016794204711914
          ],
          [
            -0.13253700733184814,
            -0.15269924700260162,
            0.31855669617652893,
            0.013530757278203964,
            -0.1569751352071762,
            -0.3007662296295166,
            0.12161187082529068,
            0.06410571187734604,
            0.33052363991737366,
            0.05626467242836952,
            -0.07870034873485565,
            0.07562711089849472,
            -0.1405905783176422,
            0.08677637577056885,
            -0.1787034124135971,
            0.11545050144195557,
            0.03661840409040451,
            -0.08404263108968735,
            -0.003771416377276182,
            -0.0843731015920639,
            0.0499197356402874,
            -0.0014848780119791627,
            -0.07120753824710846,
            -0.059323493391275406,
            -0.015011599287390709,
            -0.03050495870411396,
            0.09210500866174698,
            0.2862616777420044,
            0.10729381442070007,
            0.07626044750213623,
            -0.053434379398822784,
            0.15073302388191223,
            0.024979325011372566,
            0.170872300863266,
            0.10254555940628052,
            -0.001679966109804809,
            -0.03336203470826149,
            -0.011935102753341198,
            -0.004802870098501444,
            -0.0454738549888134,
            0.16257254779338837,
            0.16159363090991974,
            0.07065007835626602,
            -0.017664341256022453
          ],
          [
            -0.07620920240879059,
            -0.2713594138622284,
            0.14584974944591522,
            0.23308256268501282,
            -0.3401448130607605,
            0.03334793075919151,
            -0.19048072397708893,
            0.021475691348314285,
            0.24993453919887543,
            0.042783305048942566,
            0.13475172221660614,
            -0.04757503420114517,
            -0.10076954215765,
            0.049943748861551285,
            -0.10000621527433395,
            0.3041318953037262,
            0.0655173733830452,
            0.24569851160049438,
            0.10321549326181412,
            -0.20477920770645142,
            0.14584647119045258,
            -0.155581995844841,
            0.20419973134994507,
            -0.014281613752245903,
            0.12335750460624695,
            0.12169603258371353,
            -0.18305107951164246,
            0.163252055644989,
            0.008738353848457336,
            0.113188236951828,
            -0.054953914135694504,
            0.16551627218723297,
            0.11905357241630554,
            -0.07818470150232315,
            0.0044149840250611305,
            0.0971391424536705,
            0.13783162832260132,
            0.21793100237846375,
            -0.018781166523694992,
            0.008549162186682224,
            0.005384992342442274,
            -0.06762811541557312,
            0.11957714706659317,
            -0.10822776705026627
          ],
          [
            0.1378958821296692,
            -0.03239450231194496,
            0.08108565211296082,
            -0.3042490780353546,
            0.06393332779407501,
            0.059931956231594086,
            0.0969809889793396,
            -0.14112971723079681,
            0.3299890458583832,
            0.0013116048648953438,
            -0.23167645931243896,
            -0.34177926182746887,
            -0.39040157198905945,
            0.18840020895004272,
            0.23373892903327942,
            0.2587725520133972,
            0.17897751927375793,
            -0.14358682930469513,
            -0.18330445885658264,
            -0.2698211073875427,
            0.01898321881890297,
            0.1250283420085907,
            -0.03550676256418228,
            -0.07999575138092041,
            0.09178583323955536,
            -0.07912656664848328,
            0.18789751827716827,
            -0.010856322944164276,
            0.027163492515683174,
            0.10915116220712662,
            0.08255838602781296,
            0.11333505064249039,
            -0.03556126728653908,
            0.18637649714946747,
            0.2685876786708832,
            0.049820952117443085,
            0.039968833327293396,
            0.1353762149810791,
            0.20450928807258606,
            0.17292818427085876,
            0.12617899477481842,
            0.029005102813243866,
            0.13974475860595703,
            -0.0712810531258583
          ],
          [
            0.029868196696043015,
            -0.18482187390327454,
            0.1116192638874054,
            0.04076630622148514,
            -0.15889856219291687,
            0.11821473389863968,
            0.06952059268951416,
            -0.047904353588819504,
            -0.1841059923171997,
            0.04592203348875046,
            0.10028933733701706,
            -0.11255262792110443,
            0.23679639399051666,
            0.0027321854140609503,
            0.016364801675081253,
            0.23903073370456696,
            0.16823622584342957,
            0.23031580448150635,
            -0.07524863630533218,
            -0.13658611476421356,
            0.1416228711605072,
            0.12366602569818497,
            -0.08927048742771149,
            0.013742594048380852,
            -0.07956529408693314,
            0.11109647899866104,
            -0.24390840530395508,
            0.08357036113739014,
            0.016836056485772133,
            0.12178963422775269,
            -0.11414784938097,
            0.027632618322968483,
            0.0030738189816474915,
            0.2069423347711563,
            0.07396718114614487,
            -0.17730854451656342,
            -0.02513391710817814,
            0.09128842502832413,
            0.04392896965146065,
            0.06505025178194046,
            -0.05513748154044151,
            0.1780681610107422,
            0.06144271790981293,
            0.11751731485128403
          ],
          [
            0.08414389193058014,
            -0.26833897829055786,
            0.29463034868240356,
            0.37563925981521606,
            0.40454792976379395,
            -0.0969880223274231,
            0.011046187952160835,
            0.150996595621109,
            -0.2634194493293762,
            -0.007638450711965561,
            0.028790252283215523,
            -0.2839401662349701,
            0.15046407282352448,
            -0.02341541461646557,
            -0.006335875019431114,
            0.06778624653816223,
            0.08967835456132889,
            0.039411190897226334,
            0.06390445679426193,
            0.06291070580482483,
            0.08520083129405975,
            0.22538265585899353,
            -0.07650203257799149,
            -0.0027488530613482,
            -0.06485949456691742,
            0.2361437827348709,
            -0.18490594625473022,
            0.21531517803668976,
            -0.09814541786909103,
            0.1174643412232399,
            -0.03731987625360489,
            0.055239174515008926,
            0.16795089840888977,
            -0.021449090912938118,
            -0.08435004949569702,
            0.033796001225709915,
            0.04060782864689827,
            -0.05796220898628235,
            -0.15428854525089264,
            0.028157914057374,
            -0.12358159571886063,
            -0.13329876959323883,
            -0.04372631758451462,
            -0.03592443838715553
          ],
          [
            -0.2367502748966217,
            -0.13432031869888306,
            0.2883276343345642,
            0.11690791696310043,
            0.03085554577410221,
            0.08878745138645172,
            0.09915409237146378,
            -0.13013355433940887,
            0.08201665431261063,
            -0.001746973255649209,
            -0.03859257698059082,
            -0.20276789367198944,
            0.02252712845802307,
            0.11039158701896667,
            -0.05621270462870598,
            0.20461980998516083,
            0.08059979230165482,
            0.06370516866445541,
            -0.24986940622329712,
            0.18005985021591187,
            -0.007431542035192251,
            0.21382494270801544,
            -0.30829450488090515,
            -0.061159539967775345,
            -0.18255525827407837,
            -0.06345871835947037,
            0.007351461332291365,
            0.01198048796504736,
            -0.043065886944532394,
            0.16383038461208344,
            0.05349753424525261,
            0.14159582555294037,
            0.1380385458469391,
            0.1778281033039093,
            0.13335543870925903,
            -0.1099356859922409,
            -0.0053511327132582664,
            0.12088094651699066,
            -0.01632874272763729,
            0.06983045488595963,
            0.13438630104064941,
            0.23657125234603882,
            0.14984466135501862,
            0.2482782006263733
          ],
          [
            0.25320062041282654,
            0.07175575941801071,
            0.0532265305519104,
            -0.06591735780239105,
            0.13384930789470673,
            0.2016352266073227,
            -0.1068122610449791,
            0.10506244748830795,
            0.0037285531871020794,
            0.1796068251132965,
            0.007972832769155502,
            -0.05248701199889183,
            -0.005686888005584478,
            0.19891946017742157,
            -0.07281319051980972,
            0.03939438611268997,
            -0.14346207678318024,
            -0.08855502307415009,
            -0.2287004142999649,
            0.06701583415269852,
            0.08172447979450226,
            0.14692474901676178,
            0.2858128249645233,
            -0.0707506313920021,
            0.07060612738132477,
            -0.1281280666589737,
            -0.017044251784682274,
            -0.27365195751190186,
            0.2773445248603821,
            -0.05950792133808136,
            -0.028876548632979393,
            -0.09836269915103912,
            0.015161443501710892,
            0.07487744837999344,
            -0.014990312978625298,
            0.14796839654445648,
            -0.1382787674665451,
            -0.03135930746793747,
            0.11741416901350021,
            -0.19059370458126068,
            0.17974328994750977,
            0.03449207544326782,
            0.048857223242521286,
            -0.04067235067486763
          ],
          [
            -0.22990146279335022,
            -0.1882527768611908,
            0.1706019639968872,
            0.21361538767814636,
            -0.1657610684633255,
            0.08140102028846741,
            0.15964677929878235,
            0.135451540350914,
            0.1255035102367401,
            -0.20308883488178253,
            -0.12881183624267578,
            -0.11507336050271988,
            0.06824690848588943,
            -0.06891115754842758,
            0.09362716227769852,
            -0.07882232964038849,
            0.10258492082357407,
            -0.12014643847942352,
            0.16366825997829437,
            0.19622187316417694,
            0.0643482655286789,
            0.11003296822309494,
            -0.18180426955223083,
            -0.00912232231348753,
            -0.0834820494055748,
            0.05668073147535324,
            -0.017745260149240494,
            0.258783757686615,
            -0.16513106226921082,
            -0.023064663633704185,
            -0.07462547719478607,
            0.1359616369009018,
            -0.07677915692329407,
            0.008420717902481556,
            0.1960495561361313,
            0.0474831685423851,
            0.1973019391298294,
            0.13525350391864777,
            0.13756470382213593,
            0.08202694356441498,
            0.07967063039541245,
            0.1762530505657196,
            0.19857069849967957,
            0.1880757361650467
          ],
          [
            0.34138938784599304,
            0.01193931233137846,
            -0.05396756902337074,
            -0.1279023289680481,
            0.22112323343753815,
            -0.018685761839151382,
            -0.11432397365570068,
            0.03600505739450455,
            0.00695508997887373,
            0.24993224442005157,
            -0.10683175176382065,
            0.12654706835746765,
            -0.08037479221820831,
            0.23839575052261353,
            -0.035961925983428955,
            0.21573999524116516,
            0.06073649227619171,
            -0.08490029722452164,
            -0.2075909674167633,
            0.27919429540634155,
            0.1550413817167282,
            -0.02677992917597294,
            0.20317867398262024,
            -0.14372028410434723,
            0.11490897834300995,
            -0.047522708773612976,
            0.03070250153541565,
            -0.2730512320995331,
            0.17353762686252594,
            0.004170864820480347,
            -0.007892373949289322,
            0.07518409192562103,
            0.10864794254302979,
            0.027028962969779968,
            -0.09460944682359695,
            -0.06875084340572357,
            0.12682361900806427,
            -0.11359872668981552,
            -0.06048661470413208,
            -0.1044783741235733,
            0.12235162407159805,
            -0.022743407636880875,
            0.12308089435100555,
            0.10991846024990082
          ],
          [
            0.20365118980407715,
            0.040539536625146866,
            -0.09944028407335281,
            -0.07625895738601685,
            0.16931599378585815,
            -0.14968761801719666,
            -0.0995885580778122,
            0.1422492116689682,
            0.015960272401571274,
            -0.16013967990875244,
            0.14823827147483826,
            -0.14538942277431488,
            0.11734020709991455,
            0.08781600743532181,
            0.06512180715799332,
            -0.26668283343315125,
            -0.07369992882013321,
            0.08028148859739304,
            0.14094041287899017,
            0.01538352482020855,
            -0.23190174996852875,
            -0.181310772895813,
            0.14299611747264862,
            0.08755051344633102,
            0.12783533334732056,
            0.04923183470964432,
            -0.06210726127028465,
            0.0799609050154686,
            0.25258201360702515,
            0.1529347449541092,
            -0.010637466795742512,
            -8.61963490024209e-05,
            0.06737427413463593,
            0.1725914180278778,
            0.1984775811433792,
            0.041151367127895355,
            -0.1313934326171875,
            0.051739804446697235,
            0.033857665956020355,
            0.13633494079113007,
            0.15632031857967377,
            -0.036523591727018356,
            -0.145318403840065,
            -0.05282694101333618
          ],
          [
            0.14504185318946838,
            0.16675937175750732,
            0.1088564470410347,
            -0.033362988382577896,
            0.02900778315961361,
            -0.04576137661933899,
            -0.0915059819817543,
            -0.1606472283601761,
            0.08832584321498871,
            -0.04156576469540596,
            -0.08436930924654007,
            -0.16689077019691467,
            0.02159661240875721,
            -0.06971845775842667,
            0.14852671325206757,
            0.05277882143855095,
            -0.1387605518102646,
            -0.08202281594276428,
            0.2109946608543396,
            0.00805024616420269,
            -0.010405801236629486,
            0.038210511207580566,
            -0.15902596712112427,
            -0.07191524654626846,
            -0.07962526381015778,
            -0.009125541895627975,
            0.09526602923870087,
            -0.07616972178220749,
            0.311318963766098,
            0.013874764554202557,
            0.07447671890258789,
            -0.04056469351053238,
            0.1707167625427246,
            -0.05629802495241165,
            -0.07211252301931381,
            0.3028441071510315,
            0.22540122270584106,
            0.15621891617774963,
            0.16303560137748718,
            0.05439995229244232,
            0.018363354727625847,
            -0.015840908512473106,
            -0.10852178186178207,
            0.0357353501021862
          ],
          [
            0.21157242357730865,
            -0.08654318004846573,
            -0.04436223581433296,
            -0.1479489952325821,
            -0.16756899654865265,
            -0.010836507193744183,
            -0.028199054300785065,
            0.2646786868572235,
            0.26154062151908875,
            -0.09504614025354385,
            0.09495759010314941,
            0.0025668106973171234,
            -0.1284179538488388,
            0.2120371013879776,
            -0.16767939925193787,
            0.12432541698217392,
            0.2932800352573395,
            0.025649873539805412,
            0.1292843073606491,
            -0.09450837969779968,
            0.13975827395915985,
            -0.15764345228672028,
            0.018968181684613228,
            0.15139234066009521,
            -0.029924996197223663,
            0.2456153929233551,
            0.12026844918727875,
            0.1891658455133438,
            0.29000750184059143,
            0.17197038233280182,
            0.14856989681720734,
            -0.12987501919269562,
            0.1325078159570694,
            0.2144838273525238,
            0.048790886998176575,
            -0.05608856678009033,
            -0.11995130777359009,
            -0.04203423485159874,
            0.024249307811260223,
            -0.00046274124179035425,
            -0.09306129068136215,
            0.042701199650764465,
            0.06284885108470917,
            -0.15888501703739166
          ],
          [
            0.00903045479208231,
            -0.09891261160373688,
            0.30075836181640625,
            -0.037764012813568115,
            0.10003293305635452,
            0.029489438980817795,
            0.29986363649368286,
            -0.2987808287143707,
            0.04482632130384445,
            0.29898959398269653,
            -0.15771321952342987,
            -0.0029483004473149776,
            -0.12612934410572052,
            0.09262329339981079,
            -0.12266302108764648,
            0.10729096829891205,
            0.06720225512981415,
            -0.00950369518250227,
            0.0061022317968308926,
            0.17753611505031586,
            0.017801351845264435,
            0.09591256827116013,
            0.2869504988193512,
            -0.2576543688774109,
            0.19326817989349365,
            -0.12158120423555374,
            0.08200576901435852,
            -0.10146643221378326,
            -0.1238785833120346,
            0.0908830389380455,
            -0.011300875805318356,
            -0.03490468114614487,
            0.12970410287380219,
            -0.08703349530696869,
            -0.05845490097999573,
            0.052539531141519547,
            0.009832180105149746,
            -0.08628100156784058,
            -0.09242215007543564,
            0.08349990099668503,
            -0.04054795205593109,
            0.07509592175483704,
            0.052382469177246094,
            0.16147610545158386
          ],
          [
            -0.10362323373556137,
            0.18432888388633728,
            0.014888285659253597,
            -0.3156420886516571,
            0.1903790533542633,
            0.2928239107131958,
            0.05452343448996544,
            0.28473272919654846,
            -0.05919152870774269,
            0.177089661359787,
            -0.11838877946138382,
            0.10596606135368347,
            0.11640045046806335,
            -0.19365015625953674,
            -0.16686546802520752,
            -0.10683249682188034,
            0.12021870166063309,
            -0.037032537162303925,
            -0.13357189297676086,
            0.2555818259716034,
            -0.20435748994350433,
            0.20576956868171692,
            0.06662922352552414,
            -0.10420919209718704,
            0.202095627784729,
            0.030219517648220062,
            -0.22186601161956787,
            0.056761227548122406,
            -0.13061074912548065,
            0.060237590223550797,
            0.12161669135093689,
            0.13217449188232422,
            0.2526112198829651,
            0.1290058195590973,
            0.11611222475767136,
            -0.07067949324846268,
            -0.038866717368364334,
            -0.16107498109340668,
            0.06448705494403839,
            -0.04470296949148178,
            0.15023429691791534,
            0.13602489233016968,
            0.23945066332817078,
            -0.014272402040660381
          ],
          [
            0.29929929971694946,
            0.1791658252477646,
            0.17816127836704254,
            0.10193999111652374,
            0.06357992440462112,
            -0.20897549390792847,
            -0.033381566405296326,
            -0.13881902396678925,
            0.05786618962883949,
            0.11804129928350449,
            -0.1279401034116745,
            0.10805176943540573,
            -0.02904154546558857,
            0.09254574775695801,
            0.20144586265087128,
            -0.29470527172088623,
            -0.24959878623485565,
            0.07740922272205353,
            0.06327509880065918,
            -0.06496663391590118,
            -0.1320631504058838,
            -0.02622249163687229,
            0.052553124725818634,
            0.0188935324549675,
            -0.20607143640518188,
            -0.056663792580366135,
            0.3193333148956299,
            -0.22307540476322174,
            0.03468918427824974,
            0.19215643405914307,
            -0.023292291909456253,
            0.17083953320980072,
            0.12198542803525925,
            -0.04707140102982521,
            0.06803540140390396,
            0.24123136699199677,
            0.010018507018685341,
            0.1080910935997963,
            0.005049756728112698,
            0.023769071325659752,
            0.14039865136146545,
            0.09046798944473267,
            -0.07967308908700943,
            0.11351532489061356
          ],
          [
            0.17221452295780182,
            0.24001052975654602,
            -0.044565413147211075,
            -0.11897463351488113,
            0.28004857897758484,
            -0.12392749637365341,
            -0.05748558044433594,
            0.09315093606710434,
            -0.010470117442309856,
            0.02469678595662117,
            -0.18110980093479156,
            -0.057719286531209946,
            0.046776216477155685,
            -0.02682310901582241,
            0.2467976063489914,
            -0.13995802402496338,
            -0.013527796603739262,
            -0.2395101636648178,
            0.13531476259231567,
            0.24950003623962402,
            -0.02380412258207798,
            0.23227517306804657,
            -0.20294687151908875,
            -0.10978791862726212,
            -0.06690505892038345,
            0.002469393191859126,
            0.004266600124537945,
            0.053498636931180954,
            0.11100052297115326,
            -0.06093648076057434,
            0.12176493555307388,
            0.14706502854824066,
            -0.04175492003560066,
            0.12967677414417267,
            0.25942134857177734,
            -0.06680332124233246,
            -0.08901894837617874,
            -0.016495004296302795,
            0.11196351051330566,
            0.10568191111087799,
            0.14890053868293762,
            -0.0001381455804221332,
            -0.026832610368728638,
            0.1607428640127182
          ],
          [
            -0.12207818776369095,
            -0.04948500171303749,
            0.1344825178384781,
            0.11913778632879257,
            -0.20133844017982483,
            0.1960715800523758,
            0.14549511671066284,
            0.12107155472040176,
            0.21581260859966278,
            0.2950614392757416,
            -0.13541577756404877,
            -0.0038873336743563414,
            -0.14307355880737305,
            0.0471796914935112,
            0.0001593500783201307,
            0.297888845205307,
            0.028044549748301506,
            0.17271755635738373,
            -0.22486737370491028,
            -0.05840551480650902,
            0.05005912482738495,
            -0.03014780767261982,
            0.22231756150722504,
            -0.11275120079517365,
            0.014275534078478813,
            -0.16158300638198853,
            0.022420281544327736,
            0.025784064084291458,
            0.06877957284450531,
            0.14848692715168,
            0.06836605072021484,
            -0.08076661080121994,
            -0.06659330427646637,
            -0.04713672772049904,
            0.06961950659751892,
            0.07090213149785995,
            0.036006905138492584,
            -0.03100031614303589,
            -0.11031178385019302,
            -0.1338304728269577,
            -0.009604137390851974,
            0.0917341336607933,
            -0.037674982100725174,
            -0.04943282529711723
          ],
          [
            -0.045398399233818054,
            0.20923949778079987,
            0.1000213623046875,
            0.07651027292013168,
            0.1342848688364029,
            0.1251162886619568,
            0.11591383814811707,
            0.10095001757144928,
            0.20325465500354767,
            -0.12575258314609528,
            -0.08056876063346863,
            -0.053388357162475586,
            -0.07444356381893158,
            -0.05550166592001915,
            0.24120305478572845,
            -0.0867248997092247,
            0.1795945018529892,
            0.0558365136384964,
            0.19708533585071564,
            0.11878833919763565,
            -0.12571093440055847,
            -0.011405893601477146,
            -0.1778459995985031,
            0.06771814823150635,
            -0.13808976113796234,
            0.086591936647892,
            -0.08677884936332703,
            0.087792307138443,
            0.2539120018482208,
            0.10970620810985565,
            0.1796768754720688,
            -0.1549944430589676,
            0.01589410938322544,
            -0.035469189286231995,
            0.07936286181211472,
            -0.021178418770432472,
            -0.07223223894834518,
            -0.07371600717306137,
            0.030959896743297577,
            -0.07462939620018005,
            -0.057814497500658035,
            -0.1866435557603836,
            0.07598872482776642,
            -0.09670569002628326
          ],
          [
            0.09836985170841217,
            0.10149895399808884,
            -0.158706396818161,
            0.16936826705932617,
            -0.02298213355243206,
            0.021772615611553192,
            -0.034026969224214554,
            -0.1067144051194191,
            0.0059060328640043736,
            0.031117817386984825,
            0.07355204224586487,
            0.18429900705814362,
            0.23378363251686096,
            -0.024569453671574593,
            -0.014224525541067123,
            0.07978758960962296,
            0.21118998527526855,
            0.12984345853328705,
            0.1814790964126587,
            -0.14445947110652924,
            0.15095029771327972,
            -0.19483323395252228,
            -0.32648205757141113,
            -0.03587617725133896,
            -0.04010188207030296,
            0.08999186754226685,
            0.015517734922468662,
            0.06153983250260353,
            0.3211384415626526,
            0.04682903364300728,
            0.03481344133615494,
            -0.03372684493660927,
            0.09862760454416275,
            -0.13496747612953186,
            -0.1781342774629593,
            0.38075217604637146,
            0.24508404731750488,
            0.07189814746379852,
            0.14612434804439545,
            -0.09618929773569107,
            -0.07234946638345718,
            -0.11805779486894608,
            0.12697665393352509,
            0.13014094531536102
          ],
          [
            -0.09697972983121872,
            -0.12830191850662231,
            0.2693845331668854,
            0.16984359920024872,
            -0.023174643516540527,
            -0.09503339231014252,
            0.0038690809160470963,
            -0.22329013049602509,
            -0.03879217803478241,
            0.14216755330562592,
            -0.12235663086175919,
            -0.11598199605941772,
            0.021930459886789322,
            -0.005108884535729885,
            0.1364787518978119,
            0.24225203692913055,
            0.04419991374015808,
            0.06359061598777771,
            0.04390816390514374,
            0.19491861760616302,
            0.026140401139855385,
            -0.06888628005981445,
            0.20772786438465118,
            0.10978352278470993,
            -0.05491261184215546,
            -0.1843283474445343,
            0.058850061148405075,
            0.03114977665245533,
            -0.2899264097213745,
            0.16168111562728882,
            0.09773898124694824,
            0.03194058686494827,
            -0.14804424345493317,
            0.017375396564602852,
            0.11264022439718246,
            0.060356058180332184,
            0.01940501108765602,
            0.10971856862306595,
            -0.0602407306432724,
            0.1559152752161026,
            0.17933441698551178,
            0.24952411651611328,
            0.20550890266895294,
            0.030704867094755173
          ],
          [
            0.16140344738960266,
            0.15900598466396332,
            -0.12604595720767975,
            -0.034210316836833954,
            0.12275654077529907,
            0.22258171439170837,
            0.12688899040222168,
            0.20745454728603363,
            -0.27284520864486694,
            -0.18550843000411987,
            0.19239605963230133,
            0.10550688207149506,
            0.16458187997341156,
            -0.27011755108833313,
            0.11938125640153885,
            -0.20142993330955505,
            0.014545274898409843,
            0.008502419106662273,
            0.17560821771621704,
            0.20679618418216705,
            -0.007273626979440451,
            0.14174692332744598,
            0.08077707141637802,
            0.21370917558670044,
            -0.0392925851047039,
            -0.16920198500156403,
            -0.2584788501262665,
            -0.13223524391651154,
            0.05235407128930092,
            -0.009027388878166676,
            0.09863687306642532,
            -0.12656301259994507,
            0.11807549744844437,
            0.07690591365098953,
            0.005039423704147339,
            0.15431420505046844,
            0.11497439444065094,
            -0.1139642521739006,
            0.033194635063409805,
            0.055746160447597504,
            -0.04592559114098549,
            0.14170105755329132,
            0.1719720959663391,
            -0.05054555460810661
          ],
          [
            -0.1252603828907013,
            0.09221599996089935,
            -0.13159319758415222,
            -0.15326693654060364,
            0.19663077592849731,
            0.26732781529426575,
            0.13504745066165924,
            -0.06289967149496078,
            0.1342550665140152,
            0.15696938335895538,
            -0.09409445524215698,
            0.027514850720763206,
            -0.06878415495157242,
            0.004211351741105318,
            0.12112364172935486,
            0.11726982146501541,
            -0.060904860496520996,
            -0.154769629240036,
            -0.03845059126615524,
            0.038353435695171356,
            -0.14889417588710785,
            0.15998943150043488,
            0.1915406435728073,
            -0.18173842132091522,
            -0.16468147933483124,
            -0.09515590965747833,
            0.2042653113603592,
            -0.11271575093269348,
            -0.0792691707611084,
            0.07346852123737335,
            0.168256476521492,
            0.0609605610370636,
            0.19042056798934937,
            0.06289630383253098,
            -0.06374768167734146,
            -0.12926092743873596,
            -0.02399677224457264,
            0.08276493102312088,
            0.004848589189350605,
            0.1524909883737564,
            0.05916471779346466,
            0.11008772999048233,
            0.09860751032829285,
            0.191135972738266
          ],
          [
            0.10438905656337738,
            -0.0021633473224937916,
            0.1983182281255722,
            -0.0025361417792737484,
            0.07838558405637741,
            0.08940493315458298,
            0.23955662548542023,
            -0.17345282435417175,
            0.21505215764045715,
            0.24572500586509705,
            0.17339128255844116,
            0.3096729815006256,
            -0.11075691878795624,
            0.0829685777425766,
            0.09250737726688385,
            0.0020140972919762135,
            0.08108511567115784,
            0.1001206785440445,
            0.14366284012794495,
            0.0008683696505613625,
            -0.04317381978034973,
            -0.07654791325330734,
            0.446537584066391,
            0.10738648474216461,
            0.17739027738571167,
            -0.20895341038703918,
            0.017125345766544342,
            -0.32477203011512756,
            0.05554809793829918,
            0.021250326186418533,
            0.027296388521790504,
            -0.06879547983407974,
            -0.07720620930194855,
            -0.13958348333835602,
            -0.07357814162969589,
            0.1593858152627945,
            -0.12839964032173157,
            0.0034171969164162874,
            -0.02059379406273365,
            -0.04338450729846954,
            -0.06383940577507019,
            -0.049131207168102264,
            -0.08023831993341446,
            0.0649663507938385
          ],
          [
            0.17695876955986023,
            -0.24037061631679535,
            0.22765995562076569,
            0.1486711949110031,
            -0.00830556359142065,
            -0.11503612250089645,
            -0.19410665333271027,
            -0.1809844672679901,
            0.19780047237873077,
            -0.08536447584629059,
            0.06074189394712448,
            -0.08755164593458176,
            -0.08931533247232437,
            0.180120050907135,
            0.0862913578748703,
            0.08981762081384659,
            -0.1629534512758255,
            0.024981927126646042,
            0.16628596186637878,
            -0.12893880903720856,
            0.03896621987223625,
            -0.19417646527290344,
            0.24026896059513092,
            0.08511422574520111,
            0.051770035177469254,
            0.10788335651159286,
            0.1639958769083023,
            0.22717848420143127,
            0.08219671249389648,
            -0.00046501378528773785,
            -0.08362677693367004,
            0.0645851194858551,
            -0.08981369435787201,
            -0.08517869561910629,
            -0.010811739601194859,
            0.2501601576805115,
            -0.0024279423523694277,
            0.1849430352449417,
            0.09489273279905319,
            0.033037323504686356,
            -0.09729167073965073,
            -0.08603295683860779,
            0.0574115626513958,
            -0.06767763942480087
          ],
          [
            -0.07205785065889359,
            -0.24327853322029114,
            -0.2092689424753189,
            -0.015701228752732277,
            -0.3326340615749359,
            0.06437747180461884,
            0.07451910525560379,
            0.25336208939552307,
            0.13599541783332825,
            0.26246851682662964,
            0.09737760573625565,
            -0.03076918050646782,
            -0.007318808231502771,
            0.24501372873783112,
            -0.264996200799942,
            0.3951023519039154,
            0.28900402784347534,
            0.050900716334581375,
            -0.12854185700416565,
            -0.17850029468536377,
            0.249211385846138,
            -0.1033131405711174,
            0.12958809733390808,
            -0.05872764438390732,
            0.058395929634571075,
            0.10956254601478577,
            -0.03335466980934143,
            0.2742699086666107,
            0.011844122782349586,
            -0.061370063573122025,
            -0.0022444012574851513,
            -0.03127084672451019,
            0.12557381391525269,
            0.21583735942840576,
            0.14226819574832916,
            -0.01935829594731331,
            -0.07028374820947647,
            0.02664182521402836,
            0.06972158700227737,
            -0.03803301975131035,
            0.07159080356359482,
            0.0297587551176548,
            0.03616483137011528,
            0.007375198416411877
          ],
          [
            0.0372672900557518,
            0.12855121493339539,
            0.11815037578344345,
            0.027720829471945763,
            -0.006721613463014364,
            -0.019006097689270973,
            -0.07209110260009766,
            0.06149948015809059,
            0.20686297118663788,
            -0.012024198658764362,
            0.04910551756620407,
            0.2358464151620865,
            0.073273666203022,
            -0.22409135103225708,
            0.08317645639181137,
            -0.07211527973413467,
            0.05031903088092804,
            0.0695299282670021,
            0.18848949670791626,
            0.1780017763376236,
            -0.02378138341009617,
            0.16667060554027557,
            0.30653876066207886,
            0.1200309470295906,
            -0.0714300274848938,
            -0.17683297395706177,
            -0.24932250380516052,
            -0.16454099118709564,
            0.09705435484647751,
            -0.15271912515163422,
            0.016968872398138046,
            -0.17331042885780334,
            0.11120982468128204,
            -0.14459124207496643,
            -0.0501343235373497,
            0.02071736752986908,
            -0.00807398185133934,
            -0.1907634139060974,
            0.1340438425540924,
            -0.10443244129419327,
            0.053893301635980606,
            0.09481095522642136,
            0.07790879905223846,
            -0.12377107888460159
          ],
          [
            0.2661091387271881,
            0.049876946955919266,
            -0.22205352783203125,
            -0.04372848570346832,
            0.0392749086022377,
            -0.029849182814359665,
            0.06122966855764389,
            0.18246479332447052,
            0.14699886739253998,
            -0.2543491721153259,
            0.014448879286646843,
            -0.1367502212524414,
            -0.11300943791866302,
            0.12862981855869293,
            0.0742616131901741,
            -0.10489939153194427,
            -0.09992790222167969,
            0.004562739282846451,
            -0.028999632224440575,
            0.008011193946003914,
            -0.20131118595600128,
            -0.13153991103172302,
            0.06917322427034378,
            0.06515345722436905,
            0.11733666062355042,
            0.18017220497131348,
            0.23661132156848907,
            0.23250533640384674,
            0.1408858746290207,
            0.07856866717338562,
            0.034892577677965164,
            -0.05307724326848984,
            0.11271150410175323,
            0.12042909115552902,
            0.24228177964687347,
            0.11524933576583862,
            -0.03613534942269325,
            0.051132261753082275,
            0.11599808931350708,
            0.051026176661252975,
            0.03112805262207985,
            -0.027616526931524277,
            -0.03270665928721428,
            -0.11477628350257874
          ]
        ],
        "biases": [
          -0.03793017566204071,
          -0.09672195464372635,
          0.05320003628730774,
          -0.07227852940559387,
          0.03432881459593773,
          -0.06733143329620361,
          0.11821886897087097,
          0.1947203278541565,
          0.11529868096113205,
          -0.0734858438372612,
          0.0551275797188282,
          0.007683675270527601,
          0.1661074012517929,
          -0.0724589005112648,
          0.07100839167833328,
          0.1032082587480545,
          -0.06562615185976028,
          0.1366976946592331,
          0.09732974320650101,
          -0.05501825362443924,
          0.1402704119682312,
          0.05542716756463051,
          0.17768320441246033,
          0.16284748911857605,
          0.0950002670288086,
          0.15937308967113495,
          -0.05205591395497322,
          -0.016484539955854416,
          0.027827970683574677,
          -0.11909416317939758,
          0.14533351361751556,
          0.08569619059562683,
          0.11877597123384476,
          -0.08281321078538895,
          0.12049926072359085,
          -0.01753738336265087,
          -0.0038424357771873474,
          0.07354516535997391,
          -0.042447518557310104,
          0.12733745574951172,
          -0.04039805009961128,
          0.1653640866279602,
          0.00700571620836854,
          0.17688414454460144,
          0.04067061468958855,
          -0.023801198229193687,
          0.18002650141716003,
          -0.03679298236966133,
          -0.06925661861896515,
          0.004632965195924044,
          0.15258795022964478,
          0.06460274010896683,
          0.16888241469860077,
          -0.049627527594566345,
          -0.047104865312576294,
          -0.047560445964336395,
          -0.057291384786367416,
          0.015083515085279942,
          0.008966284804046154,
          -0.06181639805436134,
          0.03403725475072861,
          0.01032695360481739,
          -0.05389711260795593,
          0.06044623628258705
        ],
        "activation": "relu"
      },
      {
        "weights": [
          [
            -0.07713876664638519,
            0.0790148675441742,
            0.11164727061986923,
            0.33231091499328613,
            -0.08940158784389496,
            -0.13317717611789703,
            -0.02233591489493847,
            0.10706379264593124,
            -0.07015157490968704,
            0.09291423857212067,
            -0.12732760608196259,
            -0.21542875468730927,
            0.06094696372747421,
            0.0734175443649292,
            0.13283514976501465,
            0.06333795189857483,
            0.12295280396938324,
            -0.10584857314825058,
            0.024665527045726776,
            -0.09737751632928848,
            0.04964539781212807,
            0.019351374357938766,
            -0.017590945586562157,
            -0.21967464685440063,
            0.15717995166778564,
            0.04212620481848717,
            0.15078860521316528,
            0.13794103264808655,
            0.10228794068098068,
            -0.03502355515956879,
            0.1648244857788086,
            0.09678709506988525,
            -0.017437366768717766,
            -0.07708963751792908,
            -0.06271068006753922,
            0.2727370858192444,
            0.04465823248028755,
            0.06230310723185539,
            -0.05017893761396408,
            -0.16501890122890472,
            0.12149973958730698,
            0.07440097630023956,
            0.17687125504016876,
            -0.14994312822818756,
            0.07417809963226318,
            -0.13781949877738953,
            -0.15061533451080322,
            0.10213038325309753,
            0.010721409693360329,
            0.23333778977394104,
            0.1585255265235901,
            -0.17604093253612518,
            -0.09384535998106003,
            0.020838700234889984,
            -0.04093201458454132,
            0.05983369052410126,
            0.01278611458837986,
            -0.060719143599271774,
            0.11209770292043686,
            -0.19420568645000458,
            -0.01769799180328846,
            -0.07570946961641312,
            0.07324325293302536,
            -0.260507196187973
          ],
          [
            -0.07747774571180344,
