{
  "alice": {
    "layers": [
      {
        "weights": [
          [
            -0.20983140170574188,
            0.23681773245334625,
            0.03232710435986519,
            -0.12818342447280884,
            -0.04113628715276718,
            0.0715244933962822,
            -0.04990065470337868,
            -0.014065551571547985,
            0.08027072995901108,
            -0.20299944281578064,
            -0.0469946525990963,
            0.28441375494003296,
            -0.061003074049949646,
            0.03595248609781265,
            -0.019926123321056366,
            0.24736160039901733,
            -0.19237639009952545,
            0.22067217528820038,
            0.09073305130004883,
            -0.053133513778448105,
            0.18680889904499054,
            0.1353367567062378,
            0.013350468128919601,
            0.12565192580223083,
            -0.18527935445308685,
            0.10896570980548859,
            -0.14756803214550018,
            0.11403319239616394,
            0.2418331652879715,
            -0.005192015320062637,
            0.023617664352059364,
            -0.004309304524213076,
            -0.10673505812883377,
            -0.14333157241344452,
            0.17068210244178772,
            -0.013479368761181831,
            0.16896995902061462,
            -0.013645154424011707,
            0.15151087939739227,
            -0.03910022974014282,
            -0.03354661539196968,
            -0.06455587595701218,
            0.044900305569171906,
            0.03345073387026787
          ],
          [
            -0.2129477858543396,
            0.10015612840652466,
            -0.13305748999118805,
            0.12476146221160889,
            -0.15051735937595367,
            -0.30819523334503174,
            0.10608882457017899,
            -0.16837260127067566,
            -0.23357681930065155,
            0.08313026279211044,
            -0.15209785103797913,
            0.23253391683101654,
            0.08578657358884811,
            -0.10587935149669647,
            -0.17554475367069244,
            0.18582458794116974,
            0.22879144549369812,
            -0.029142118990421295,
            -0.08158347755670547,
            0.1348181515932083,
            -0.04382861778140068,
            0.3066047430038452,
            -0.1285146325826645,
            -0.1188003197312355,
            -0.04774428531527519,
            0.10667265951633453,
            -0.021382581442594528,
            0.012077500112354755,
            0.15198606252670288,
            0.03934039920568466,
            0.13674220442771912,
            -0.03720445930957794,
            0.059509165585041046,
            0.16105619072914124,
            0.18591363728046417,
            0.09255320578813553,
            0.1974649429321289,
            0.165199413895607,
            0.06622064113616943,
            0.13054941594600677,
            0.05768274888396263,
            0.149613618850708,
            0.16468286514282227,
            -0.00623210659250617
          ],
          [
            -0.07373296469449997,
            0.2067490667104721,
            0.4183283746242523,
            -0.012413084506988525,
            -0.021811701357364655,
            0.3589329123497009,
            0.12962102890014648,
            -0.22850675880908966,
            0.05567774921655655,
            -0.17167282104492188,
            -0.31613317131996155,
            0.04470045492053032,
            -0.0898081585764885,
            0.06361427158117294,
            -0.033732376992702484,
            0.1486251801252365,
            -0.18458548188209534,
            0.08246468007564545,
            0.17841339111328125,
            0.02610086463391781,
            0.00982759427279234,
            0.1322920173406601,
            0.043853070586919785,
            0.0394052192568779,
            -0.1996442675590515,
            -0.018004320561885834,
            -0.12880203127861023,
            0.02941097691655159,
            -0.09547312557697296,
            0.09609389305114746,
            0.08051171153783798,
            0.013099154457449913,
            0.24657486379146576,
            0.04831685498356819,
            0.1637677550315857,
            0.08184198290109634,
            -0.025094227865338326,
            0.05207041651010513,
            0.13797833025455475,
            0.0798766016960144,
            0.06041587516665459,
            0.15747709572315216,
            -0.010145391337573528,
            -0.03508204594254494
          ],
          [
            0.07222756743431091,
            -0.2060449719429016,
            -0.23341941833496094,
            -0.28754985332489014,
            0.0015361893456429243,
            -0.009228585287928581,
            0.08752886950969696,
            -0.07521861046552658,
            -0.04379657283425331,
            0.16281650960445404,
            0.19965459406375885,
            0.030016588047146797,
            -0.18312397599220276,
            -0.05745021253824234,
            0.02779199555516243,
            -0.009478218853473663,
            0.056171905249357224,
            0.029741089791059494,
            0.14435510337352753,
            0.09316011518239975,
            0.04835105687379837,
            -0.03685355558991432,
            -0.20655430853366852,
            0.04903221130371094,
            0.2102445662021637,
            0.21278615295886993,
            0.19579282402992249,
            0.038857653737068176,
            0.23192855715751648,
            0.016492869704961777,
            0.017527110874652863,
            0.15321238338947296,
            -0.06025751307606697,
            0.1437634378671646,
            0.20436981320381165,
            0.0010699535487219691,
            0.06472746282815933,
            -0.05793819949030876,
            -0.013190840370953083,
            -0.04653894156217575,
            0.02827632613480091,
            0.1003512442111969,
            0.055834583938121796,
            -0.016703598201274872
          ],
          [
            0.14274773001670837,
            -0.042517710477113724,
            -0.16096991300582886,
            0.1337231546640396,
            -0.14261752367019653,
            0.21026542782783508,
            -0.055776555091142654,
            -0.02782757394015789,
            0.2465992271900177,
            0.25526365637779236,
            0.029451072216033936,
            0.05849564075469971,
            -0.3197927474975586,
            -0.25085920095443726,
            -0.31317126750946045,
            0.057023704051971436,
            0.06304895132780075,
            0.18142753839492798,
            -0.08917628973722458,
            0.03055788390338421,
            0.0012660450302064419,
            0.23793219029903412,
            -0.11869145929813385,
            0.02955903485417366,
            0.03060373291373253,
            0.08102729916572571,
            0.33325421810150146,
            0.11196581274271011,
            -0.19002315402030945,
            -0.04714765399694443,
            -0.22249877452850342,
            0.28151413798332214,
            0.10064875334501266,
            0.08449499309062958,
            0.00376692577265203,
            -0.04525640234351158,
            -0.08888695389032364,
            0.036067668348550797,
            0.25212666392326355,
            0.11203403025865555,
            0.18008138239383698,
            0.3575328588485718,
            0.08839324116706848,
            0.044886816293001175
          ],
          [
            0.16928067803382874,
            0.04712333530187607,
            -0.11456061899662018,
            -0.05559650436043739,
            0.07083376497030258,
            -0.2884659171104431,
            -0.13599398732185364,
            0.3873318135738373,
            0.0931602492928505,
            -0.02464768849313259,
            0.18520352244377136,
            0.3748980462551117,
            -0.12737947702407837,
            0.24488362669944763,
            -0.08884941041469574,
            -0.19440191984176636,
            0.16617922484874725,
            -0.017264069989323616,
            0.19566401839256287,
            0.027985503897070885,
            0.17208412289619446,
            -0.30135825276374817,
            -0.028468208387494087,
            -0.09371378272771835,
            -0.22163133323192596,
            0.16209012269973755,
            0.0378158874809742,
            0.28720787167549133,
            -0.11334118992090225,
            0.10481792688369751,
            0.07160074263811111,
            0.27624592185020447,
            -0.124405637383461,
            -0.10434888303279877,
            -0.07876904308795929,
            -0.053419943898916245,
            -0.05427784100174904,
            0.07444547861814499,
            0.041812390089035034,
            0.001779184676706791,
            0.09397848695516586,
            0.08391924947500229,
            0.12928107380867004,
            0.015557868406176567
          ],
          [
            0.06539244949817657,
            0.18699464201927185,
            0.01628340594470501,
            0.023241747170686722,
            0.06026758253574371,
            0.09861613065004349,
            -0.01738390326499939,
            0.2554248869419098,
            0.1632721722126007,
            0.00014838113565929234,
            -0.06061319634318352,
            -0.037168167531490326,
            0.018938886001706123,
            -0.07716497033834457,
            0.05803816765546799,
            0.055279798805713654,
            -0.02015272155404091,
            0.09621818363666534,
            0.018843745812773705,
            -0.22151434421539307,
            0.17601323127746582,
            0.07883766293525696,
            0.06359352916479111,
            0.003483108477666974,
            -0.023419415578246117,
            0.032990649342536926,
            -0.047870781272649765,
            0.007014036178588867,
            -0.14743658900260925,
            -0.025955159217119217,
            -0.11590375006198883,
            0.217921182513237,
            0.048287712037563324,
            0.027237486094236374,
            -0.13095036149024963,
            -0.028194792568683624,
            0.04011642932891846,
            0.04727722704410553,
            -0.050861552357673645,
            0.046839337795972824,
            0.07065152376890182,
            0.10965579748153687,
            -0.06885603815317154,
            -0.17275281250476837
          ],
          [
            0.04249698668718338,
            0.0487019382417202,
            -0.07721889764070511,
            0.21662046015262604,
            0.18164078891277313,
            -0.1272939294576645,
            0.06582653522491455,
            0.1327284872531891,
            0.0746283009648323,
            0.04748881980776787,
            -0.11334608495235443,
            -0.1615394949913025,
            0.03311317041516304,
            0.04959989711642265,
            0.071522556245327,
            -0.16260334849357605,
            -0.03835121542215347,
            -0.07666751742362976,
            0.08442749083042145,
            0.034981511533260345,
            -0.007354175206273794,
            -0.2509550154209137,
            0.1159389391541481,
            -0.059449028223752975,
            -0.0008285571821033955,
            0.1306534707546234,
            -0.029564013704657555,
            -0.02033643238246441,
            0.22569498419761658,
            -0.014220055192708969,
            0.21506573259830475,
            -0.07104381918907166,
            0.14864800870418549,
            0.1545133888721466,
            0.11404713988304138,
            0.12758862972259521,
            0.0457192026078701,
            -0.03723248466849327,
            0.006837021559476852,
            0.13008075952529907,
            -0.050256796181201935,
            0.02160707116127014,
            0.1348906308412552,
            0.034834131598472595
          ],
          [
            0.11092457175254822,
            0.2479681670665741,
            0.1460554450750351,
            0.1116357371211052,
            0.05747679993510246,
            -0.2161090075969696,
            0.06196534261107445,
            -0.08175081014633179,
            -0.20067672431468964,
            0.07185694575309753,
            -0.06733816117048264,
            -0.07437244057655334,
            0.028827209025621414,
            0.12312538921833038,
            0.1396658569574356,
            -0.07931602001190186,
            0.10772314667701721,
            -0.06137198209762573,
            -0.10836774855852127,
            0.06721766293048859,
            0.07579118013381958,
            0.10575032979249954,
            -0.05864465609192848,
            -0.3209852874279022,
            0.16772635281085968,
            0.002223286312073469,
            0.06836113333702087,
            -0.14244650304317474,
            0.2467939704656601,
            -0.12207014858722687,
            0.059357013553380966,
            0.013891004957258701,
            0.08816871792078018,
            0.09561190754175186,
            0.04127929359674454,
            0.003386111930012703,
            0.18295909464359283,
            0.010047174990177155,
            -0.09295132756233215,
            -0.03576773777604103,
            0.0790352001786232,
            0.10765577852725983,
            -0.01961166225373745,
            0.16675721108913422
          ],
          [
            -0.16224153339862823,
            -0.03909451887011528,
            0.07300325483083725,
            0.1445995420217514,
            0.019846927374601364,
            0.18038783967494965,
            -0.07524595409631729,
            0.1187685877084732,
            0.2914274036884308,
            0.05541975796222687,
            0.14895564317703247,
            0.11432027816772461,
            0.01942404918372631,
            0.06925502419471741,
            0.1456705778837204,
            0.009677699767053127,
            0.08763079345226288,
            0.03736850246787071,
            -0.1588677316904068,
            0.11855269223451614,
            -0.16291189193725586,
            0.11503321677446365,
            -0.11843708902597427,
            0.29993942379951477,
            -0.17980995774269104,
            -0.05835963040590286,
            0.0521189384162426,
            -0.026642728596925735,
            -0.08099395036697388,
            0.15782012045383453,
            -0.08365029841661453,
            0.021141493692994118,
            -0.09662624448537827,
            -0.21991503238677979,
            -0.08854945749044418,
            0.06852275133132935,
            -0.11613742262125015,
            -0.1100757047533989,
            0.07571569830179214,
            0.026699569076299667,
            0.13390693068504333,
            0.053257055580616,
            0.011655258014798164,
            0.11419612169265747
          ],
          [
            0.12356428056955338,
            0.09610185027122498,
            0.017822330817580223,
            -0.10464999079704285,
            0.23421870172023773,
            0.042144857347011566,
            -0.21802979707717896,
            0.305440217256546,
            0.2269895225763321,
            -0.18067200481891632,
            0.035344429314136505,
            0.09161262959241867,
            -0.034215543419122696,
            0.14753928780555725,
            0.2048499435186386,
            -0.0917489156126976,
            -0.14412906765937805,
            -0.07904396951198578,
            0.13989534974098206,
            -0.03182775154709816,
            -0.16808494925498962,
            -0.2692281901836395,
            0.10971323400735855,
            0.10306746512651443,
            -0.1377495527267456,
            0.020034104585647583,
            0.05012599006295204,
            0.2520918548107147,
            -0.0951027199625969,
            0.2807633876800537,
            0.06647507101297379,
            0.14497439563274384,
            0.18224559724330902,
            -0.09525555372238159,
            -0.05000663921236992,
            0.1929892897605896,
            -0.004351295065134764,
            0.09755700081586838,
            0.17179004848003387,
            0.17147575318813324,
            0.09986010938882828,
            0.030643414705991745,
            0.021141989156603813,
            -0.11324138194322586
          ],
          [
            0.16278576850891113,
            -0.1631447821855545,
            0.2032453715801239,
            0.05873681604862213,
            -0.17432968318462372,
            -0.10981779545545578,
            0.0282585471868515,
            0.04033255577087402,
            -0.009082650765776634,
            0.10191574692726135,
            0.06094341352581978,
            0.07932779937982559,
            -0.047910191118717194,
            -0.15624070167541504,
            -0.07646922767162323,
            0.09831338375806808,
            0.15036073327064514,
            0.09566974639892578,
            0.017527271062135696,
            0.14581823348999023,
            0.027576282620429993,
            0.006226879078894854,
            -0.07560118287801743,
            0.20905496180057526,
            -0.07268340140581131,
            0.08572153747081757,
            -0.10019712150096893,
            -0.27576175332069397,
            -0.006951203569769859,
            0.036239925771951675,
            -0.02052835002541542,
            0.03713786229491234,
            -0.008593513630330563,
            0.005735248327255249,
            0.004136817529797554,
            0.11324449628591537,
            -0.0915808454155922,
            -0.041666917502880096,
            0.10423162579536438,
            -0.07054135203361511,
            -0.05120910331606865,
            0.09661129117012024,
            0.1167234405875206,
            0.10340163856744766
          ],
          [
            0.25629907846450806,
            0.17909002304077148,
            -0.19377362728118896,
            0.1309904009103775,
            0.06215457245707512,
            0.06050686165690422,
            0.02523725852370262,
            -0.05927857384085655,
            0.13426677882671356,
            -0.16339953243732452,
            0.08841830492019653,
            0.09396445006132126,
            0.340839684009552,
            0.16676707565784454,
            0.033443160355091095,
            -0.1036384254693985,
            0.10093148052692413,
            -0.09177552908658981,
            0.03727579116821289,
            0.1442524939775467,
            -0.27442261576652527,
            -0.29729315638542175,
            0.1713038682937622,
            -0.01784433051943779,
            0.030676215887069702,
            0.0783877894282341,
            0.09923096746206284,
            0.13216468691825867,
            -0.025508590042591095,
            0.027589110657572746,
            0.127325177192688,
            0.110438272356987,
            -0.0920315831899643,
            0.000471932755317539,
            -0.09959987550973892,
            -0.04837246611714363,
            -0.013129227794706821,
            -0.10291647911071777,
            -0.10512599349021912,
            0.1113995686173439,
            0.13783641159534454,
            -0.09330075234174728,
            -0.0720192939043045,
            0.18054552376270294
          ],
          [
            0.17113198339939117,
            0.0018574066925793886,
            -0.015833241865038872,
            0.10440754145383835,
            -0.018548468127846718,
            0.02782408520579338,
            -0.034147340804338455,
            -0.07601439952850342,
            -0.02258189395070076,
            -0.017553912475705147,
            0.16823019087314606,
            -0.17149382829666138,
            0.056642450392246246,
            0.009320694953203201,
            -0.052319299429655075,
            0.036435045301914215,
            0.11985325068235397,
            0.15674012899398804,
            -0.2687680721282959,
            0.15421248972415924,
            0.11729160696268082,
            -0.14981858432292938,
            0.09304219484329224,
            -0.25959986448287964,
            0.08774182200431824,
            -0.04155316576361656,
            -0.0844038650393486,
            -0.0063517093658447266,
            0.11585886031389236,
            -0.14124628901481628,
            0.1318373829126358,
            0.12161388248205185,
            -0.11344366520643234,
            0.17430880665779114,
            0.03748512640595436,
            0.013024489395320415,
            0.23002925515174866,
            0.031305860728025436,
            -0.12295114994049072,
            -0.1445709615945816,
            0.01870892196893692,
            0.04957116022706032,
            -0.02466694638133049,
            0.2125115841627121
          ],
          [
            0.17542581260204315,
            0.09441854804754257,
            -0.000644918589387089,
            -0.06976883858442307,
            0.18447519838809967,
            -0.14653581380844116,
            -0.14495132863521576,
            0.3001190423965454,
            -0.020269757136702538,
            -0.09760453552007675,
            0.13929490745067596,
            0.02417093515396118,
            0.02148149162530899,
            -0.16882966458797455,
            0.04809632897377014,
            -0.17542079091072083,
            0.15093429386615753,
            -0.07932943850755692,
            -0.023476500064134598,
            -0.11871548742055893,
            -0.1582758128643036,
            -0.17783312499523163,
            0.09172898530960083,
            -0.14161115884780884,
            -0.01421787217259407,
            0.02983745001256466,
            0.17515896260738373,
            0.18935060501098633,
            -0.21334701776504517,
            0.20464234054088593,
            0.047899290919303894,
            -0.03385409340262413,
            0.12417455017566681,
            0.1913766711950302,
            -0.07580249011516571,
            0.1910228133201599,
            0.024800464510917664,
            0.1042717769742012,
            0.13316874206066132,
            0.15821462869644165,
            0.008716149255633354,
            0.09644221514463425,
            0.182223379611969,
            0.11303840577602386
          ],
          [
            0.06874705106019974,
            0.12093289196491241,
            0.008328966796398163,
            0.029516419395804405,
            0.13201592862606049,
            -0.2048235535621643,
            -0.02649904228746891,
            0.1583995819091797,
            -0.17891380190849304,
            0.060397714376449585,
            -0.1498187929391861,
            -0.10608188807964325,
            0.11233768612146378,
            -0.05693517625331879,
            -0.21314287185668945,
            0.05370695888996124,
            -0.03559691086411476,
            -0.28599849343299866,
            0.14712557196617126,
            -0.10071911662817001,
            0.12483587116003036,
            0.08639827370643616,
            0.22317659854888916,
            0.004203145392239094,
            -0.01669880375266075,
            0.054103754460811615,
            0.2585914433002472,
            -0.02538970671594143,
            -0.1354263424873352,
            0.030688220635056496,
            0.22434069216251373,
            0.07051215320825577,
            0.2011411041021347,
            0.2939796447753906,
            0.01532149501144886,
            0.03999679908156395,
            0.1639333814382553,
            0.17253154516220093,
            0.021551894024014473,
            0.028067192062735558,
            -0.04753865301609039,
            0.23123247921466827,
            -0.02609449066221714,
            0.07261296361684799
          ],
          [
            0.14071591198444366,
            0.013686941005289555,
            -0.22636154294013977,
            -0.11799930781126022,
            0.19958870112895966,
            0.18719114363193512,
            -0.1529175192117691,
            0.2575471103191376,
            -0.20769856870174408,
            0.17328158020973206,
            0.0823470875620842,
            -0.14719203114509583,
            -0.1568433940410614,
            0.18357886373996735,
            0.03269117698073387,
            0.03173058480024338,
            0.019272558391094208,
            -0.13850443065166473,
            0.1272316873073578,
            0.1587171107530594,
            0.1492619514465332,
            0.017933784052729607,
            0.14355316758155823,
            -0.10645776987075806,
            0.2507788836956024,
            -0.16664375364780426,
            0.3195996582508087,
            0.009608184918761253,
            -0.11125125735998154,
            0.0866849347949028,
            0.05127746984362602,
            0.06868989020586014,
            -0.015927743166685104,
            0.15294259786605835,
            -0.02475161850452423,
            0.01807079091668129,
            0.0925905704498291,
            0.11706435680389404,
            9.811125346459448e-05,
            -0.007662962656468153,
            0.15906117856502533,
            0.19667842984199524,
            -0.07385174185037613,
            -0.08808769285678864
          ],
          [
            -0.20153634250164032,
            -0.18513274192810059,
            0.13268662989139557,
            -0.045666225254535675,
            -0.04674670472741127,
            0.1562376171350479,
            -0.003472969401627779,
            0.045905835926532745,
            0.26985791325569153,
            0.19307886064052582,
            0.29959234595298767,
            -0.02134793810546398,
            -0.014282435178756714,
            -0.1236724928021431,
            0.18034838140010834,
            -0.01506554801017046,
            -0.23008932173252106,
            0.18501831591129303,
            -0.18433186411857605,
            -0.1296241730451584,
            0.13858562707901,
            -0.200882226228714,
            0.18805071711540222,
            -0.021269917488098145,
            0.2555859386920929,
            -0.025785313919186592,
            0.04205816239118576,
            0.03502604737877846,
            -0.1737445741891861,
            0.11876101046800613,
            0.0914604663848877,
            0.24171245098114014,
            -0.006179769057780504,
            -0.11015260964632034,
            0.00990378949791193,
            0.02433994971215725,
            0.06069327890872955,
            0.0356069914996624,
            0.06480443477630615,
            -0.05101291090250015,
            -0.0040071322582662106,
            0.11991644650697708,
            0.015450771898031235,
            -0.04304113984107971
          ],
          [
            -0.23255178332328796,
            0.01832578144967556,
            -0.07139641791582108,
            0.25044557452201843,
            -0.1434229612350464,
            0.027536582201719284,
            0.21817007660865784,
            -0.009702895767986774,
            -0.04897649213671684,
            -0.14869868755340576,
            0.09326571226119995,
            0.17106002569198608,
            -0.039202094078063965,
            -0.08922236412763596,
            -0.12187821418046951,
            0.18741610646247864,
            0.2687680721282959,
            0.011935713700950146,
            -0.17764711380004883,
            0.06118175759911537,
            -0.04161161929368973,
            0.06096092611551285,
            -0.17213447391986847,
            0.09368537366390228,
            -0.006459081079810858,
            0.16495281457901,
            -0.15025633573532104,
            -0.032558195292949677,
            0.1482391059398651,
            -0.05175633728504181,
            -0.02740943804383278,
            0.1612187922000885,
            -0.08624979108572006,
            -0.1194259449839592,
            -0.02071191929280758,
            0.045385099947452545,
            0.13155806064605713,
            0.0016548398416489363,
            0.022423243150115013,
            0.013559718616306782,
            -0.08348467946052551,
            0.09184034913778305,
            0.13632506132125854,
            0.2518557608127594
          ],
          [
            0.005569227039813995,
            0.07806770503520966,
            0.08411280065774918,
            0.09533389657735825,
            -0.04224979877471924,
            0.1537816822528839,
            0.14322200417518616,
            -0.36223673820495605,
            -0.16339857876300812,
            0.16941073536872864,
            0.11592601984739304,
            -0.023279456421732903,
            0.1367681473493576,
            -0.021657975390553474,
            0.1780225783586502,
            0.0043946607038378716,
            0.01927182637155056,
            0.009540406987071037,
            0.0561254508793354,
            0.046039730310440063,
            -0.08526577800512314,
            -0.13928718864917755,
            0.040754616260528564,
            -0.16954347491264343,
            0.20769143104553223,
            -0.03508215397596359,
            -0.2584332525730133,
            -0.12599436938762665,
            0.20660816133022308,
            0.10452720522880554,
            0.14154952764511108,
            0.02105080522596836,
            0.1890355497598648,
            0.024344930425286293,
            -0.13132639229297638,
            0.1436060220003128,
            0.08741193264722824,
            0.08672833442687988,
            -0.1003158912062645,
            0.18840159475803375,
            0.08182325214147568,
            -0.07527700811624527,
            -0.07367885857820511,
            0.07789657264947891
          ],
          [
            0.3190268576145172,
            -0.22749094665050507,
            0.15035460889339447,
            -0.18680860102176666,
            -0.1985413283109665,
            -0.04456612095236778,
            0.034997254610061646,
            -0.048446863889694214,
            -0.03508009761571884,
            0.2168724238872528,
            -0.22117280960083008,
            -0.04119285196065903,
            -0.1289852112531662,
            0.16653676331043243,
            0.14924205839633942,
            -0.0019978410564363003,
            -0.19074340164661407,
            0.047173433005809784,
            0.1638200730085373,
            0.08522558212280273,
            0.3368966281414032,
            -0.319677472114563,
            0.04421684890985489,
            0.1881643533706665,
            0.20074354112148285,
            -0.23961898684501648,
            0.2326202094554901,
            0.3460027873516083,
            0.17191532254219055,
            0.11051793396472931,
            0.21443293988704681,
            -0.13943161070346832,
            0.07584845274686813,
            0.06636470556259155,
            0.13706831634044647,
            0.14629186689853668,
            0.11468711495399475,
            0.09059524536132812,
            0.021602356806397438,
            0.04822332784533501,
            0.12855087220668793,
            -0.07481037825345993,
            0.005093729123473167,
            0.08683136105537415
          ],
          [
            -0.10996976494789124,
            -0.06650010496377945,
            0.08094248920679092,
            -0.1954033523797989,
            -0.09253120422363281,
            0.07619733363389969,
            0.20344679057598114,
            0.018276723101735115,
            -0.049645304679870605,
            -0.2024519145488739,
            -0.09365462511777878,
            0.15868471562862396,
            0.06773802638053894,
            0.08423679322004318,
            0.06814265996217728,
            0.12970146536827087,
            0.18989485502243042,
            -0.010213598608970642,
            0.08712299913167953,
            0.17501160502433777,
            0.025668451562523842,
            0.040271103382110596,
            0.014679093845188618,
            0.22523336112499237,
            -0.08239543437957764,
            0.1289491206407547,
            -0.17761127650737762,
            -0.020671118050813675,
            0.16853570938110352,
            0.24323023855686188,
            0.050513140857219696,
            -0.08547087758779526,
            -0.11021432280540466,
            -0.15159954130649567,
            0.26148518919944763,
            0.09717478603124619,
            0.019215796142816544,
            -0.0025882278569042683,
            -0.06469005346298218,
            0.05820867419242859,
            0.0018607613164931536,
            -0.15937235951423645,
            0.03654663264751434,
            -0.010950368829071522
          ],
          [
            0.2680273950099945,
            0.11765503883361816,
            0.0914943665266037,
            0.01753244549036026,
            0.10950262099504471,
            -0.12807710468769073,
            -0.11030355840921402,
            0.19228121638298035,
            -0.04723517224192619,
            0.060967933386564255,
            -0.04646781459450722,
            0.14197197556495667,
            -0.06151122599840164,
            -0.09987134486436844,
            0.10363057255744934,
            0.01507174875587225,
            -0.013049157336354256,
            -0.24861468374729156,
            0.1970156878232956,
            -0.04846276715397835,
            0.06650201231241226,
            -0.1621810495853424,
            0.012138486839830875,
            0.04768775403499603,
            0.09735376387834549,
            -0.036973293870687485,
            0.146772101521492,
            0.10237634927034378,
            -0.002323486842215061,
            -0.05678057670593262,
            0.054190292954444885,
            0.1774195283651352,
            0.18916626274585724,
            0.054940298199653625,
            0.006145644001662731,
            0.09792940318584442,
            -0.07835584133863449,
            0.027489932253956795,
            -0.044969432055950165,
            0.0975516214966774,
            -0.05433660000562668,
            0.21820935606956482,
            -0.0728236511349678,
            -0.09945686161518097
          ],
          [
            0.19183805584907532,
            0.20916743576526642,
            0.1658865362405777,
            0.003810503054410219,
            0.19904825091362,
            -0.05171452835202217,
            -0.27093642950057983,
            0.06707243621349335,
            0.08681967109441757,
            -0.09781121462583542,
            -0.041713837534189224,
            0.13641445338726044,
            -0.05131416767835617,
            -0.09221269935369492,
            0.24600569903850555,
            -0.17397339642047882,
            -0.19122517108917236,
            -0.13803842663764954,
            0.2548324465751648,
            -0.12517251074314117,
            0.12792856991291046,
            -0.10237240791320801,
            0.28450247645378113,
            0.08715219795703888,
            0.17150986194610596,
            -0.11663025617599487,
            0.18877409398555756,
            -0.05952701345086098,
            -0.04517431929707527,
            0.07508085668087006,
            0.08087752014398575,
            0.2051757127046585,
            0.1782577484846115,
            0.1975647509098053,
            0.04665253683924675,
            0.014371998608112335,
            -0.09763502329587936,
            -0.03384952247142792,
            -0.09549764543771744,
            -0.0154488580301404,
            0.18070295453071594,
            0.0584648959338665,
            0.07898817211389542,
            -0.07933967560529709
          ],
          [
            0.13509345054626465,
            0.0919298604130745,
            0.016193469986319542,
            -0.2211492955684662,
            0.05947307497262955,
            0.25462204217910767,
            0.20864896476268768,
            -0.15636847913265228,
            0.08011439442634583,
            0.2591671645641327,
            0.15857262909412384,
            -0.24587109684944153,
            -0.3748617172241211,
            0.02837444841861725,
            -0.05405458062887192,
            0.15141445398330688,
            0.0028051165863871574,
            0.221736341714859,
            0.0379059761762619,
            0.07584056258201599,
            0.07232128083705902,
            -0.058334626257419586,
            0.1434365212917328,
            0.047771137207746506,
            0.2628609538078308,
            -0.026430465281009674,
            0.12087980657815933,
            -0.10154843330383301,
            -0.21663154661655426,
            -0.03147106617689133,
            -0.07454393804073334,
            0.16357919573783875,
            -0.07334885001182556,
            0.024343198165297508,
            -0.12362290173768997,
            0.09686446189880371,
            -0.08085408061742783,
            0.16583679616451263,
            0.10237295180559158,
            0.050178900361061096,
            0.10691111534833908,
            -0.007389263715595007,
            0.04826192930340767,
            0.07107404619455338
          ],
          [
            0.2227674275636673,
            -0.17436623573303223,
            -0.35734987258911133,
            -0.19008730351924896,
            0.052164413034915924,
            0.1483546793460846,
            0.03857110068202019,
            -0.15074943006038666,
            0.2603317201137543,
            -0.0026155891828238964,
            0.11087726801633835,
            0.039676401764154434,
            -0.11943460255861282,
            0.11634095013141632,
            -0.06043779477477074,
            0.023116933181881905,
            -0.03716833516955376,
            0.36992406845092773,
            -0.015947969630360603,
            -0.0021362118422985077,
            0.17742504179477692,
            -0.14072999358177185,
            -0.2418910562992096,
            0.06173913553357124,
            0.07456208020448685,
            0.01126785110682249,
            -0.005432344973087311,
            0.30077385902404785,
            0.039341915398836136,
            0.10534961521625519,
            -0.02804255113005638,
            0.12746617197990417,
            0.10490215569734573,
            0.0695972889661789,
            0.11208654940128326,
            0.03712804615497589,
            -0.07612630724906921,
            0.04225749894976616,
            0.10485027730464935,
            0.16097110509872437,
            0.03273662179708481,
            0.2156118005514145,
            0.10333710163831711,
            -0.17598852515220642
          ],
          [
            0.078996442258358,
            0.13893048465251923,
            -0.07757727056741714,
            -0.23941604793071747,
            0.0725724846124649,
            0.0236580278724432,
            -0.1913486123085022,
            -0.08307276666164398,
            0.17157070338726044,
            0.012854075990617275,
            -0.20103712379932404,
            -0.029023535549640656,
            -0.33901548385620117,
            0.11631055176258087,
            -0.0714881643652916,
            -0.01729058101773262,
            0.06693535298109055,
            0.24642880260944366,
            0.23798736929893494,
            -0.020671553909778595,
            -0.05905415117740631,
            -0.02323215827345848,
            0.04381725937128067,
            0.23146192729473114,
            -0.24497993290424347,
            0.11938828229904175,
            0.15545399487018585,
            0.2578548789024353,
            0.08520548045635223,
            0.09174404293298721,
            -0.10310404002666473,
            0.016831737011671066,
            0.0762784406542778,
            0.07690545171499252,
            0.08951699733734131,
            -0.00398865994066,
            0.05998902767896652,
            0.1304353028535843,
            0.09006606042385101,
            -0.009442553855478764,
            0.13836508989334106,
            0.08121322840452194,
            0.20540562272071838,
            -0.0005558618577197194
          ],
          [
            0.01708826795220375,
            0.038805074989795685,
            0.359511137008667,
            -0.08489232510328293,
            0.0881795808672905,
            0.07016194611787796,
            -0.18223825097084045,
            0.07397322356700897,
            0.08595658093690872,
            -0.04448392987251282,
            -0.046187520027160645,
            0.22653092443943024,
            -0.014058316126465797,
            -0.08170901983976364,
            0.17937827110290527,
            0.027750736102461815,
            -0.15364618599414825,
            0.09985876828432083,
            -0.07594036310911179,
            0.05288008973002434,
            -0.12748311460018158,
            0.01489997562021017,
            0.17121736705303192,
            0.23265932500362396,
            -0.008988020941615105,
            -0.16007743775844574,
            0.023370154201984406,
            0.2754012644290924,
            -0.1001695990562439,
            0.04834320396184921,
            -0.00021261960500851274,
            0.1331738531589508,
            -0.025371069088578224,
            -0.09457351267337799,
            -0.019435765221714973,
            0.13948440551757812,
            -0.015064895153045654,
            -0.02216182090342045,
            0.019587373360991478,
            0.18398132920265198,
            0.12130463868379593,
            -0.04023987427353859,
            -0.06442126631736755,
            -0.06728685647249222
          ],
          [
            0.015732452273368835,
            -0.01977337710559368,
            -0.25385382771492004,
            -0.1530132293701172,
            -0.27736127376556396,
            -0.006446434650570154,
            -0.04538321495056152,
            -0.2326817512512207,
            -0.06630286574363708,
            0.005686411168426275,
            0.06098570674657822,
            0.04900960624217987,
            -0.12965036928653717,
            0.20687566697597504,
            -0.1231817826628685,
            0.17404597997665405,
            0.2290409505367279,
            0.11726188659667969,
            0.13928595185279846,
            0.18417373299598694,
            0.09979984909296036,
            -0.04542378708720207,
            -0.11671982705593109,
            0.24731704592704773,
            -0.2675035893917084,
            0.151935875415802,
            -0.029205597937107086,
            0.20719042420387268,
            0.23090530931949615,
            0.044465746730566025,
            0.04034201055765152,
            -0.05929223820567131,
            0.058030858635902405,
            0.08611094951629639,
            0.17680411040782928,
            0.0678618848323822,
            0.024379195645451546,
            0.05534195154905319,
            0.044180937111377716,
            0.08426772803068161,
            -0.07961183786392212,
            -0.013462238945066929,
            0.021983960643410683,
            0.18779152631759644
          ],
          [
            -0.07716235518455505,
            -0.08851427584886551,
            0.059584565460681915,
            -0.07067342847585678,
            0.17358550429344177,
            0.2667301893234253,
            0.056582313030958176,
            0.22847506403923035,
            0.23254460096359253,
            0.05945104360580444,
            0.2866067886352539,
            -0.08172571659088135,
            0.20550915598869324,
            0.14917205274105072,
            0.10308240354061127,
            0.08736089617013931,
            -0.07994808256626129,
            -0.029499977827072144,
            -0.20156069099903107,
            0.0017705329228192568,
            -0.05485125258564949,
            0.04268339276313782,
            -0.21572335064411163,
            -0.24011434614658356,
            0.059534188359975815,
            0.01869676262140274,
            -0.16561275720596313,
            0.13802959024906158,
            -0.0820583701133728,
            0.013312837108969688,
            -0.04522206634283066,
            -0.06053419038653374,
            -0.03367761895060539,
            -0.1162247434258461,
            -0.04308679327368736,
            0.16255424916744232,
            -0.03181937336921692,
            0.07349953800439835,
            -0.04125959426164627,
            0.02346569485962391,
            0.1153256967663765,
            -0.06912338733673096,
            -0.02549348585307598,
            0.14266306161880493
          ],
          [
            0.04516955465078354,
            -0.20203575491905212,
            -0.07627534866333008,
            -0.13361436128616333,
            -0.12633223831653595,
            0.03632582351565361,
            -0.015772109851241112,
            0.013591424562036991,
            0.05294915661215782,
            -0.12327679246664047,
            0.15049169957637787,
            0.04926161468029022,
            -0.1495189666748047,
            0.2372940182685852,
            0.0031892985571175814,
            0.008048424497246742,
            0.23417161405086517,
            0.23416665196418762,
            -0.021662170067429543,
            0.10816344618797302,
            -0.05479438230395317,
            -0.015472016297280788,
            -0.10520249605178833,
            0.0947125107049942,
            -0.29657039046287537,
            0.029078135266900063,
            0.1482899934053421,
            0.17962640523910522,
            0.04174976050853729,
            -0.05506831407546997,
            -0.09274662286043167,
            0.18571433424949646,
            0.0010572479804977775,
            0.06339594721794128,
            0.10483253747224808,
            -0.07098033279180527,
            0.14892297983169556,
            0.007537165191024542,
            -0.06328397244215012,
            0.10798786580562592,
            0.18325406312942505,
            0.1339031457901001,
            0.06737025082111359,
            0.17376767098903656
          ],
          [
            -0.1376701444387436,
            -0.12641197443008423,
            -0.12287028133869171,
            0.042080312967300415,
            0.019206203520298004,
            0.09425751864910126,
            0.11515553295612335,
            -0.023869724944233894,
            -0.01198493130505085,
            -0.09833323210477829,
            0.16570232808589935,
            0.11251239478588104,
            0.19263461232185364,
            -0.02880333922803402,
            -0.10257787257432938,
            0.16980841755867004,
            0.05739233270287514,
            0.2788679301738739,
            -0.30054721236228943,
            0.196141317486763,
            0.014902880415320396,
            0.11000606417655945,
            -0.2702753245830536,
            0.07107607275247574,
            -0.1571679711341858,
            -0.009680909104645252,
            -0.0838812068104744,
            -0.0431157723069191,
            0.12309044599533081,
            0.14539116621017456,
            0.1475146859884262,
            0.04845048114657402,
            -0.10569486021995544,
            -0.11771019548177719,
            0.0879015177488327,
            0.09495304524898529,
            0.13673239946365356,
            0.08442086726427078,
            0.128525972366333,
            0.043389271944761276,
            0.06361871212720871,
            0.04522639140486717,
            0.10571655631065369,
            0.03342533856630325
          ],
          [
            0.026022715494036674,
            -0.06840155273675919,
            0.21075062453746796,
            0.13812075555324554,
            -0.14820216596126556,
            -0.30605465173721313,
            0.06729616224765778,
            0.12877050042152405,
            0.24893364310264587,
            -0.16362209618091583,
            0.06227482482790947,
            0.3338637351989746,
            0.16482146084308624,
            0.021639956161379814,
            0.11790415644645691,
            0.06306516379117966,
            -0.2286434918642044,
            -0.27447599172592163,
            0.23932410776615143,
            0.1504114270210266,
            -0.190823033452034,
            -0.12737511098384857,
            0.22938618063926697,
            0.0660499557852745,
            -0.06802574545145035,
            0.2594795227050781,
            -0.15148337185382843,
            0.004772098734974861,
            0.17240412533283234,
            0.04963615536689758,
            0.23090554773807526,
            -0.0927560031414032,
            -0.16628828644752502,
            -0.0856572762131691,
            0.22015723586082458,
            -0.04805538430809975,
            0.1314563900232315,
            0.06145820394158363,
            -0.01711949333548546,
            -0.053596943616867065,
            0.00028253058553673327,
            -0.183966726064682,
            0.12890128791332245,
            0.2714380919933319
          ],
          [
            -0.21361662447452545,
            -0.1717003583908081,
            -0.10295028239488602,
            -0.11474699527025223,
            0.14514857530593872,
            0.15142415463924408,
            0.11708042770624161,
            0.15796895325183868,
            0.2022453397512436,
            0.01102503389120102,
            0.28747063875198364,
            0.05337829515337944,
            0.04580448567867279,
            0.031963322311639786,
            0.12040967494249344,
            0.10693039000034332,
            -0.11050225049257278,
            0.20770145952701569,
            -0.23142565786838531,
            0.05244402214884758,
            0.11987484991550446,
            0.01597476750612259,
            -0.07319334149360657,
            -0.29323330521583557,
            0.033398207277059555,
            0.1466970443725586,
            -0.10766638815402985,
            -0.02150179073214531,
            0.09980375319719315,
            0.16242694854736328,
            0.08854769915342331,
            0.14932063221931458,
            0.012330455705523491,
            -0.16934815049171448,
            -0.12060237675905228,
            0.09888258576393127,
            -0.04796198382973671,
            -0.06727112084627151,
            0.11063208431005478,
            -0.003389124758541584,
            -0.0481397807598114,
            -0.06321609020233154,
            -0.04027396813035011,
            0.1686086654663086
          ],
          [
            0.023992644622921944,
            0.00904728751629591,
            -0.07064585387706757,
            0.10149646550416946,
            0.10967014729976654,
            0.2217283993959427,
            0.1052100732922554,
            0.13658326864242554,
            0.13607293367385864,
            0.02880358323454857,
            0.2909739315509796,
            -0.13856668770313263,
            0.016981517896056175,
            0.16175158321857452,
            0.15188397467136383,
            0.06002145633101463,
            -0.061296068131923676,
            0.19286450743675232,
            -0.1706448793411255,
            0.04205857962369919,
            0.1881553679704666,
            0.15842671692371368,
            -0.12955553829669952,
            -0.31453779339790344,
            0.047292497009038925,
            -0.05759577825665474,
            0.24764852225780487,
            -0.11709859222173691,
            -0.10062985122203827,
            0.08942163735628128,
            -0.07375295460224152,
            0.03029407560825348,
            -0.06324950605630875,
            -0.12943336367607117,
            -0.13755689561367035,
            -0.07283200323581696,
            -0.09521466493606567,
            0.15830333530902863,
            0.1305660605430603,
            0.1274970918893814,
            -0.03405390679836273,
            0.05708645284175873,
            -0.11547867953777313,
            -0.013479678891599178
          ],
          [
            -0.025434935465455055,
            -0.11711341142654419,
            0.13632634282112122,
            0.11108440160751343,
            0.13441991806030273,
            -0.10102038830518723,
            -0.11108510196208954,
            0.04007979854941368,
            0.13905270397663116,
            0.08925613760948181,
            0.04685557633638382,
            0.22026434540748596,
            0.14861612021923065,
            0.02236202545464039,
            0.07963410019874573,
            -0.13911810517311096,
            -0.027597462758421898,
            -0.03682143613696098,
            -0.022373737767338753,
            0.11552470177412033,
            -0.0038074450567364693,
            -0.09539639949798584,
            0.17478971183300018,
            0.05828879028558731,
            0.2053097039461136,
            0.10418689250946045,
            -0.1684698909521103,
            0.14231635630130768,
            -0.11518336087465286,
            0.026828372851014137,
            0.03285161033272743,
            0.10291797667741776,
            -0.1099327951669693,
            -0.11479151993989944,
            -0.019245417788624763,
            -0.05313950777053833,
            -0.07601820677518845,
            0.056973762810230255,
            -0.019047893583774567,
            0.17931924760341644,
            -0.045454755425453186,
            0.11100296676158905,
            -0.17178574204444885,
            -0.04080968350172043
          ],
          [
            -0.12020473182201385,
            -0.0710371732711792,
            -0.10707449913024902,
            0.18962109088897705,
            0.0038333346601575613,
            -0.10854741930961609,
            -0.07710928469896317,
            -0.013467904180288315,
            0.12620355188846588,
            0.005703961011022329,
            -0.0002636972349137068,
            0.02474546991288662,
            0.2079104781150818,
            -0.033210817724466324,
            0.1008203998208046,
            -0.08295278251171112,
            -0.13284003734588623,
            -0.32568466663360596,
            -0.41074472665786743,
            0.023824429139494896,
            0.07834682613611221,
            -0.1241360455751419,
            0.1280224323272705,
            0.26753389835357666,
            0.17279711365699768,
            0.0020801001228392124,
            0.09076886624097824,
            0.19825424253940582,
            0.15370428562164307,
            0.23199649155139923,
            0.2638128399848938,
            -0.05731625482439995,
            0.04308997467160225,
            -0.011857100762426853,
            0.2612694799900055,
            0.19262589514255524,
            0.1032840684056282,
            0.09939166158437729,
            -0.05345193296670914,
            0.16126853227615356,
            -0.046207498759031296,
            -0.23942925035953522,
            0.13492591679096222,
            -0.046430278569459915
          ],
          [
            0.1357266753911972,
            -0.04802437499165535,
            0.18932461738586426,
            0.06547772139310837,
            0.155583918094635,
            -0.08535630255937576,
            0.2553664445877075,
            0.12530934810638428,
            -0.01915007270872593,
            0.17081467807292938,
            -0.05061854049563408,
            0.1554272621870041,
            0.30682623386383057,
            -0.15881037712097168,
            -0.06134960427880287,
            -0.04815157502889633,
            0.045667216181755066,
            -0.3455598056316376,
            -0.04162338376045227,
            0.04917656630277634,
            0.06921486556529999,
            -0.11633258312940598,
            0.17562060058116913,
            -0.23449672758579254,
            0.1349424421787262,
            0.16165189445018768,
            0.08352424949407578,
            -0.19853512942790985,
            0.11810077726840973,
            -0.11604633927345276,
            0.2133347988128662,
            0.10568784177303314,
            -0.0008562252623960376,
            0.05347428843379021,
            -0.12190677225589752,
            -0.03531360253691673,
            0.16128605604171753,
            0.1805146336555481,
            0.05830841138958931,
            -0.09581921249628067,
            0.01789533905684948,
            -0.041974350810050964,
            -0.05957198515534401,
            0.15559443831443787
          ],
          [
            -0.15414701402187347,
            0.07290627807378769,
            0.21920837461948395,
            0.06453164666891098,
            -0.044231437146663666,
            -0.13662122189998627,
            0.09033642709255219,
            -0.04183284193277359,
            -0.2762337327003479,
            0.12575840950012207,
            -0.12356840819120407,
            0.20852728188037872,
            -0.0006749297608621418,
            0.06838695704936981,
            -0.12352454662322998,
            0.17061518132686615,
            0.15160375833511353,
            -0.03576130419969559,
            0.23256590962409973,
            0.24981246888637543,
            -0.10622227936983109,
            0.02161804400384426,
            0.056836165487766266,
            -0.1095752939581871,
            -0.004108997527509928,
            0.16950520873069763,
            0.11201799660921097,
            0.012247901409864426,
            0.28572213649749756,
            -0.026090389117598534,
            0.19991320371627808,
            -0.00840322021394968,
            0.08363038301467896,
            0.04159976914525032,
            -0.0017758745234459639,
            0.15542200207710266,
            0.20130036771297455,
            -0.042956747114658356,
            -0.06829595565795898,
            -0.027761854231357574,
            -0.09351611137390137,
            0.017657872289419174,
            0.0033722075168043375,
            0.14647898077964783
          ],
          [
            -0.05908466875553131,
            -0.07757548987865448,
            0.38250574469566345,
            0.1417040079832077,
            0.2604018449783325,
            0.27477020025253296,
            0.13741126656532288,
            -0.01644330471754074,
            0.08729863911867142,
            0.00044713111128658056,
            0.16734814643859863,
            -0.06856260448694229,
            0.16465818881988525,
            -0.037433527410030365,
            0.22167888283729553,
            0.06221169978380203,
            -0.12651890516281128,
            -0.06909723579883575,
            -0.24849142134189606,
            0.3347380459308624,
            0.10346639901399612,
            -0.02079164981842041,
            -0.09990324825048447,
            -0.10113487392663956,
            0.31935182213783264,
            -0.07991646975278854,
            -0.20438708364963531,
            -0.2764028310775757,
            0.2502281367778778,
            -0.0024131950922310352,
            0.23769225180149078,
            0.04911264404654503,
            -0.04994037374854088,
            -0.08398336917161942,
            -0.04109765961766243,
            0.015209169127047062,
            -0.015107830055058002,
            0.03644769638776779,
            0.12151982635259628,
            0.01827407255768776,
            -0.007689892780035734,
            0.06207818537950516,
            -0.05477255582809448,
            0.16618852317333221
          ],
          [
            0.08663839101791382,
            0.23700325191020966,
            0.23243804275989532,
            0.13754041492938995,
            0.21674951910972595,
            0.12913253903388977,
            -0.1550019234418869,
            -0.04618130996823311,
            -0.028439674526453018,
            0.16090917587280273,
            0.0996541753411293,
            -0.025989750400185585,
            -0.019639989361166954,
            -0.16121874749660492,
            0.0026153193321079016,
            -0.104264035820961,
            0.2528736889362335,
            0.0245488453656435,
            -0.027550332248210907,
            -0.07660603523254395,
            0.06798180937767029,
            0.08174869418144226,
            0.15604713559150696,
            0.05980801582336426,
            0.2239799052476883,
            -0.06916681677103043,
            0.1602698266506195,
            -0.04035801440477371,
            -0.22043874859809875,
            -0.17492437362670898,
            -0.08706457167863846,
            -0.09234201163053513,
            0.08785390853881836,
            0.10431864857673645,
            0.03960295021533966,
            0.027891036123037338,
            -0.0022077993489801884,
            -0.09135082364082336,
            -0.06474009901285172,
            -0.09871404618024826,
            -0.1042141318321228,
            0.21608899533748627,
            -0.0909399762749672,
            -0.09647470712661743
          ],
          [
            -0.15060243010520935,
            0.20940923690795898,
            0.06474612653255463,
            -0.14728575944900513,
            0.010725842788815498,
            -0.040619395673274994,
            0.05248561501502991,
            0.25150951743125916,
            -0.000829785771202296,
            -0.16466651856899261,
            0.1341581493616104,
            0.2787299156188965,
            0.2331407517194748,
            0.2496684491634369,
            0.05994692072272301,
            -0.059711627662181854,
            0.0310202706605196,
            0.21342679858207703,
            0.0023823119699954987,
            -0.05467815324664116,
            -0.06245209649205208,
            -0.2700595557689667,
            0.0626610741019249,
            -0.0428318977355957,
            0.18052373826503754,
            0.28856924176216125,
            -0.3154706358909607,
            0.10703401267528534,
            -0.09689530730247498,
            0.15804314613342285,
            0.27923622727394104,
            -0.10506094992160797,
            0.00017021472740452737,
            -0.10992727428674698,
            0.04821821674704552,
            0.16025802493095398,
            0.02412288263440132,
            -0.0735512226819992,
            0.04491867497563362,
            0.07795394212007523,
            0.10514860600233078,
            -0.0018859164556488395,
            -0.07625282555818558,
            0.08265383541584015
          ],
          [
            -0.10171864926815033,
            -0.035346176475286484,
            -0.02945134975016117,
            0.08206012845039368,
            -0.101681187748909,
            0.02772388979792595,
            0.1685851514339447,
            -0.11872569471597672,
            0.2016698569059372,
            -0.08309147506952286,
            0.21758857369422913,
            0.19882754981517792,
            0.04396646097302437,
            0.15099884569644928,
            -0.2189599722623825,
            0.18931353092193604,
            0.038126956671476364,
            -0.024678925052285194,
            -0.07600008696317673,
            0.09681329876184464,
            0.018142538145184517,
            0.200733944773674,
            0.061006948351860046,
            0.2707449793815613,
            -0.25710007548332214,
            0.18334785103797913,
            -0.11641128361225128,
            0.261859655380249,
            0.006871493067592382,
            0.07746480405330658,
            -0.09240911900997162,
            -0.015251410193741322,
            -0.00681714853271842,
            -0.11434881389141083,
            0.22904959321022034,
            -0.012654140591621399,
            0.1208392083644867,
            0.04553329572081566,
            -0.01973017118871212,
            -0.015166033059358597,
            0.12147107720375061,
            -0.0848233550786972,
            -0.062209129333496094,
            0.120431087911129
          ],
          [
            0.21041393280029297,
            -0.0058610327541828156,
            0.15071934461593628,
            0.1062345951795578,
            0.142424538731575,
            0.2971547544002533,
            0.17320512235164642,
            -0.15777066349983215,
            -0.0801592767238617,
            0.3424696624279022,
            0.29536253213882446,
            -0.26347050070762634,
            0.10187740623950958,
            -0.15799236297607422,
            0.2170790582895279,
            0.05949539318680763,
            0.001538392505608499,
            0.01842365600168705,
            -0.17395901679992676,
            0.18398267030715942,
            0.17161166667938232,
            0.260466068983078,
            -0.013005312532186508,
            -0.07105807960033417,
            0.3048263192176819,
            -0.02531762234866619,
            0.18005333840847015,
            -0.36054885387420654,
            0.13182418048381805,
            -0.12072303891181946,
            -0.09301496297121048,
            -0.08535390347242355,
            0.11602674424648285,
            -0.02210301347076893,
            -0.056980546563863754,
            0.07918363064527512,
            0.034751225262880325,
            0.10900744795799255,
            -0.05139612779021263,
            0.018968673422932625,
            -0.16987697780132294,
            -0.004279845394194126,
            -0.10832105576992035,
            0.03954280540347099
          ],
          [
            -0.14890889823436737,
            -0.15331394970417023,
            -0.17328524589538574,
            -0.07250968366861343,
            -0.12683868408203125,
            0.012464984320104122,
            0.03146982938051224,
            -0.10119953751564026,
            0.031773921102285385,
            0.05547637119889259,
            0.05336678773164749,
            0.11010657995939255,
            -0.18917840719223022,
            0.21580445766448975,
            -0.24023504555225372,
            -0.1030307412147522,
            0.13713273406028748,
            -0.0829247385263443,
            -0.07162316888570786,
            0.15112942457199097,
            0.10999048501253128,
            0.07142646610736847,
            0.08091092854738235,
            -0.019944634288549423,
            -0.08274803310632706,
            0.2120717465877533,
            0.12381242215633392,
            0.006225890479981899,
            0.26574409008026123,
            -0.003871040651574731,
            -0.11886734515428543,
            0.1125933825969696,
            -0.0969775840640068,
            0.0749298706650734,
            0.119417205452919,
            -0.13813114166259766,
            0.06301094591617584,
            0.07228828966617584,
            0.15000247955322266,
            0.08462733775377274,
            -0.049245767295360565,
            0.1341055929660797,
            0.10732553154230118,
            0.19413809478282928
          ],
          [
            0.05070988088846207,
            -0.03341289982199669,
            0.08534013479948044,
            0.07592775672674179,
            -0.05718829855322838,
            -0.06577286124229431,
            -0.03674305975437164,
            0.047616519033908844,
            0.1276240050792694,
            -0.1379721313714981,
            -0.058151837438344955,
            0.0462832897901535,
            0.19840292632579803,
            0.03147753328084946,
            -0.15959452092647552,
            0.09637191146612167,
            -0.1019730493426323,
            0.18669453263282776,
            -0.16436848044395447,
            -0.09274352341890335,
            0.3122785687446594,
            -0.08745157718658447,
            0.15497134625911713,
            0.030278800055384636,
            0.14586924016475677,
            -0.20728103816509247,
            -0.17276379466056824,
            -0.03910107538104057,
            -0.03548076003789902,
            -0.07125997543334961,
            0.08072050660848618,
            0.16571639478206635,
            0.29269805550575256,
            0.37205079197883606,
            0.032354991883039474,
            0.15892896056175232,
            -0.10725719481706619,
            0.07006888091564178,
            -0.07785019278526306,
            0.023590341210365295,
            0.13305385410785675,
            0.3422655165195465,
            0.18715840578079224,
            -0.012685399502515793
          ],
          [
            -0.059548307210206985,
            -0.06906626373529434,
            -0.06786559522151947,
            0.010987182147800922,
            -0.09077131003141403,
            -0.016998915001749992,
            0.20254294574260712,
            -0.20113356411457062,
            0.13139869272708893,
            -0.01078997552394867,
            -0.004078896716237068,
            0.008694608695805073,
            -0.27194029092788696,
            -0.11286558210849762,
            -0.2182498723268509,
            0.14025765657424927,
            -0.0011847082059830427,
            0.18144285678863525,
            0.16519896686077118,
            0.06529422104358673,
            0.021001465618610382,
            0.02511606365442276,
            -0.04290541633963585,
            0.030947422608733177,
            -0.2312372475862503,
            -0.0003653053136076778,
            0.0856194868683815,
            -0.03906061872839928,
            0.18784603476524353,
            -0.04014686495065689,
            0.1287749707698822,
            0.05303084850311279,
            0.19094908237457275,
            0.28051868081092834,
            0.21790264546871185,
            0.12631140649318695,
            0.18093036115169525,
            0.10165154188871384,
            0.18179994821548462,
            -0.09222462773323059,
            -0.07410892844200134,
            0.16207198798656464,
            0.1608244925737381,
            0.10683751106262207
          ],
          [
            0.08835072815418243,
            0.11119062453508377,
            0.1801595538854599,
            0.062269777059555054,
            0.2708260416984558,
            0.015020772814750671,
            -0.04643724486231804,
            0.01851123943924904,
            -0.10598743706941605,
            -0.06347161531448364,
            0.07238969206809998,
            -0.026603782549500465,
            -0.0034030985552817583,
            0.1719527691602707,
            0.07364651560783386,
            -0.12858019769191742,
            -0.1169508695602417,
            -0.012271897867321968,
            -0.1398523598909378,
            -0.03340322524309158,
            0.06763643771409988,
            -0.06398656964302063,
            -0.04597368836402893,
            -0.1284843534231186,
            0.2827133536338806,
            -0.05748923867940903,
            0.08266192674636841,
            0.056007713079452515,
            0.25142306089401245,
            0.18421295285224915,
            0.24461717903614044,
            -0.16596032679080963,
            0.30306190252304077,
            0.1997167468070984,
            0.1310986578464508,
            0.23594874143600464,
            -0.041334763169288635,
            -0.10144668072462082,
            -0.037929702550172806,
            0.04896853119134903,
            -0.1293247640132904,
            -0.1094617024064064,
            -0.0062371534295380116,
            -0.08449341356754303
          ],
          [
            -0.004873987752944231,
            -0.1882379800081253,
            -0.16435034573078156,
            0.16362673044204712,
            -0.08916985988616943,
            -0.28569599986076355,
            0.08871354907751083,
            -0.15520980954170227,
            -0.14714060723781586,
            0.18944227695465088,
            0.01699443720281124,
            0.18290819227695465,
            0.004262387752532959,
            -0.03539539501070976,
            -0.17377665638923645,
            0.10456102341413498,
            0.2402336746454239,
            0.050785038620233536,
            0.09667674452066422,
            -0.049452733248472214,
            0.052935026586055756,
            0.005689307115972042,
            0.008750639855861664,
            0.10079988837242126,
            0.06945233792066574,
            0.020822850987315178,
            0.016809571534395218,
            -0.06301967799663544,
            0.0911034569144249,
            -0.017971167340874672,
            0.17457294464111328,
            -0.06959111988544464,
            -0.06965367496013641,
            0.24664892256259918,
            0.13966676592826843,
            -0.03705713897943497,
            0.23836979269981384,
            0.25364771485328674,
            -0.07013897597789764,
            0.08798206597566605,
            -0.003828509943559766,
            0.10922026634216309,
            0.20205001533031464,
            0.21714168787002563
          ],
          [
            0.10873663425445557,
            -0.11260440945625305,
            -0.17442908883094788,
            0.041971657425165176,
            -0.1770046204328537,
            0.31305429339408875,
            0.11160033941268921,
            0.16145674884319305,
            -0.06550630182027817,
            0.09516897797584534,
            0.22836533188819885,
            0.016036491841077805,
            -0.19424811005592346,
            0.03976790979504585,
            0.05502181500196457,
            0.10871165245771408,
            0.18420454859733582,
            0.16353294253349304,
            -0.2747153341770172,
            0.1565815955400467,
            0.018020426854491234,
            -0.006450603250414133,
            -0.06080358847975731,
            0.009590943343937397,
            0.06886302679777145,
            -0.1140880435705185,
            0.2696312963962555,
            -0.18039681017398834,
            -0.23418714106082916,
            0.057000406086444855,
            -0.035009585320949554,
            0.2004503756761551,
            -0.12629342079162598,
            0.04316119849681854,
            -0.10984040796756744,
            0.06006209924817085,
            -0.0522117018699646,
            0.15631060302257538,
            0.1824108064174652,
            -0.06135611608624458,
            0.11263427138328552,
            0.09529206901788712,
            0.10018260776996613,
            0.014309827238321304
          ],
          [
            0.24161317944526672,
            0.06714735925197601,
            0.14751584827899933,
            -0.15543442964553833,
            0.21184995770454407,
            0.24829649925231934,
            -0.007969292812049389,
            0.08649402856826782,
            0.21861177682876587,
            -0.01868918351829052,
            0.04239177331328392,
            0.0035599549300968647,
            -0.17483414709568024,
            -0.23745818436145782,
            0.02547147497534752,
            -0.20444701611995697,
            -0.02382734976708889,
            0.08286477625370026,
            -0.055141206830739975,
            0.06939838081598282,
            -0.11689895391464233,
            0.1005612164735794,
            0.12505701184272766,
            0.013866091147065163,
            -0.06504444032907486,
            -0.039673760533332825,
            -0.157764732837677,
            0.1840360015630722,
            -0.16646049916744232,
            0.15793214738368988,
            -0.14764970541000366,
            0.16148942708969116,
            0.10713686794042587,
            0.1426994353532791,
            -0.06074120104312897,
            0.10457798838615417,
            -0.0372723713517189,
            -0.04601293057203293,
            0.03509882092475891,
            0.15704046189785004,
            0.14621561765670776,
            0.008745811879634857,
            -0.11969500780105591,
            -0.02335112914443016
          ],
          [
            0.15242449939250946,
            -0.06279266625642776,
            0.055379681289196014,
            0.17508241534233093,
            0.06446202844381332,
            0.2103581577539444,
            -0.04471398890018463,
            -0.2745220363140106,
            0.07355087250471115,
            0.12977948784828186,
            0.027097409591078758,
            -0.08243070542812347,
            -0.18667776882648468,
            -0.05689549818634987,
            -0.16794750094413757,
            0.04047193378210068,
            0.00627322169020772,
            0.21223752200603485,
            -0.03194943442940712,
            0.009226247668266296,
            0.02095993235707283,
            0.15934912860393524,
            -0.038981929421424866,
            0.26533931493759155,
            -0.1076984629034996,
            -0.03712676465511322,
            0.08178829401731491,
            0.18326440453529358,
            0.008763850666582584,
            0.009142911061644554,
            -0.10635247081518173,
            0.1598242223262787,
            0.1413239985704422,
            0.20084112882614136,
            0.18379880487918854,
            0.09852568805217743,
            -0.09008006006479263,
            0.058800626546144485,
            -0.029436545446515083,
            -0.05734657496213913,
            0.05205165594816208,
            0.1690327376127243,
            0.1828673779964447,
            -0.08877470344305038
          ],
          [
            -0.07787052541971207,
            -0.08345333486795425,
            -0.1003875583410263,
            0.030432065948843956,
            -0.005762645509094,
            -0.04695315659046173,
            0.19072535634040833,
            0.15571101009845734,
            0.13332349061965942,
            -0.005929209291934967,
            -0.08382757753133774,
            -0.05984068289399147,
            -0.10987606644630432,
            -0.015509793534874916,
            -0.02833309955894947,
            -0.023341482505202293,
            -0.08297566324472427,
            -0.203290194272995,
            -0.010809486731886864,
            -0.00501279579475522,
            0.19884765148162842,
            0.1626739203929901,
            0.06726700067520142,
            0.004651644267141819,
            0.02704797498881817,
            -0.07675584405660629,
            -0.05340933799743652,
            0.007854628376662731,
            -0.15044577419757843,
            0.2685362696647644,
            0.2613140642642975,
            -0.13162574172019958,
            0.20037780702114105,
            0.17001493275165558,
            -0.04866211861371994,
            -0.01989646628499031,
            0.07612655311822891,
            0.15702585875988007,
            0.13568037748336792,
            0.024003462865948677,
            0.19946736097335815,
            0.18142834305763245,
            0.13040734827518463,
            -0.1491326242685318
          ],
          [
            -0.1462009996175766,
            0.12184495478868484,
            0.04300083592534065,
            0.1673220843076706,
            -0.014592768624424934,
            0.28462404012680054,
            0.013173182494938374,
            -0.09902705997228622,
            0.04130811244249344,
            0.06585371494293213,
            -0.0945829451084137,
            -0.03890518844127655,
            -0.0858302116394043,
            -0.0974552184343338,
            0.019641580060124397,
            0.008953404612839222,
            0.04184877499938011,
            0.1947331428527832,
            0.015340889804065228,
            0.16520749032497406,
            -0.02854219637811184,
            0.12140662223100662,
            -0.06056224927306175,
            0.26126331090927124,
            -0.14006666839122772,
            0.18008409440517426,
            0.09983277320861816,
            -0.15664885938167572,
            0.13462737202644348,
            -0.10540329664945602,
            -0.16461996734142303,
            0.04079773277044296,
            0.0385843962430954,
            0.24595023691654205,
            0.07853219658136368,
            -0.08148717135190964,
            -0.08082974702119827,
            -0.023958411067724228,
            0.11964195966720581,
            -0.022246506065130234,
            -0.10744582116603851,
            -0.06462583690881729,
            0.0983491986989975,
            -0.05865878239274025
          ],
          [
            0.12065916508436203,
            0.1927047073841095,
            0.0840282291173935,
            0.05382758378982544,
            -0.05440549924969673,
            -0.15222685039043427,
            0.1443660855293274,
            -0.14507508277893066,
            -0.18778406083583832,
            -0.010358268395066261,
            -0.2557521164417267,
            0.07489887624979019,
            -0.06778354942798615,
            0.1776035726070404,
            0.05847053602337837,
            0.05567131191492081,
            0.13926857709884644,
            -0.2571706771850586,
            0.2479827105998993,
            0.06856270879507065,
            -0.0035819162148982286,
            0.11335231363773346,
            0.009665466845035553,
            0.06331358104944229,
            -0.19350099563598633,
            0.08993004262447357,
            -0.02469504624605179,
            0.07435282319784164,
            0.20750458538532257,
            0.02708345279097557,
            0.13284987211227417,
            0.07971230894327164,
            0.23369206488132477,
            0.29730087518692017,
            0.18950611352920532,
            0.13195477426052094,
            0.12458615005016327,
            -0.04689549282193184,
            -0.06057020276784897,
            0.12783406674861908,
            -0.03902260586619377,
            -0.0032746680080890656,
            0.006419640500098467,
            -0.03779607638716698
          ],
          [
            0.052387457340955734,
            0.17794619500637054,
            0.18393176794052124,
            -0.025048431009054184,
            0.051859572529792786,
            0.03269471600651741,
            -0.2684381902217865,
            0.21178336441516876,
            0.3256964683532715,
            0.07656272500753403,
            -0.023571740835905075,
            0.003358082380145788,
            -0.09480362385511398,
            -0.21036705374717712,
            0.046147141605615616,
            -0.03963933140039444,
            -0.012616048566997051,
            -0.051050424575805664,
            0.10345584899187088,
            -0.10233151912689209,
            -0.06017531082034111,
            0.06734433025121689,
            0.028469722718000412,
            0.03125007450580597,
            -0.1267208606004715,
            -0.035857751965522766,
            -0.08407150954008102,
            0.06728576123714447,
            -0.09169111400842667,
            0.13466717302799225,
            0.1584034413099289,
            0.20743125677108765,
            0.05812382698059082,
            -0.07861550897359848,
            -0.05484829843044281,
            -0.07270227372646332,
            0.020171480253338814,
            0.08477266132831573,
            -0.02806882932782173,
            0.097967728972435,
            0.15322591364383698,
            0.023355379700660706,
            0.08855027705430984,
            0.014445437118411064
          ],
          [
            -0.09332221746444702,
            0.06859659403562546,
            -0.0505300797522068,
            -0.09464308619499207,
            -0.193648099899292,
            0.20568417012691498,
            0.12754876911640167,
            -0.012081900611519814,
            -0.007728420197963715,
            -0.1870655119419098,
            0.040260229259729385,
            0.17196519672870636,
            -0.004439231939613819,
            0.2517855763435364,
            -0.0776544138789177,
            0.17122070491313934,
            0.027815857902169228,
            0.1843620389699936,
            0.034034550189971924,
            0.03333259001374245,
            0.08806497603654861,
            -0.08740338683128357,
            -0.004113272298127413,
            0.1377970427274704,
            -0.11995334178209305,
            0.03544468805193901,
            -0.07442060112953186,
            -0.019180089235305786,
            0.06684476882219315,
            0.08762151002883911,
            -0.07573682814836502,
            -0.04986797273159027,
            0.025314033031463623,
            -0.06276992708444595,
            0.09019739180803299,
            0.14828616380691528,
            -0.017887314781546593,
            -0.11927933990955353,
            -0.04946695268154144,
            0.04163949564099312,
            0.1152663454413414,
            -0.08304435014724731,
            -0.06652092188596725,
            0.17644456028938293
          ],
          [
            0.11946512758731842,
            -0.14383989572525024,
            0.1871795952320099,
            0.2353011965751648,
            0.20937827229499817,
            0.13441793620586395,
            0.1511993408203125,
            0.04289357364177704,
            -0.08077661693096161,
            0.17529918253421783,
            0.25612661242485046,
            -0.020909786224365234,
            0.2888623774051666,
            -0.014253114350140095,
            0.04486893489956856,
            -0.01269701961427927,
            0.15347564220428467,
            -0.12017358094453812,
            0.03382907062768936,
            -0.03673228621482849,
            0.037820495665073395,
            0.16159296035766602,
            0.21534483134746552,
            -0.09218620508909225,
            0.3472559452056885,
            -0.2899450957775116,
            0.0759551152586937,
            -0.12191834300756454,
            0.0009926955681294203,
            -0.14793077111244202,
            -0.14659959077835083,
            -0.05683279410004616,
            -0.1920776516199112,
            0.10599227249622345,
            -0.15656064450740814,
            -0.03797192499041557,
            0.14403432607650757,
            -0.03724340721964836,
            0.10274922847747803,
            -0.013074151240289211,
            0.014407150447368622,
            0.09648780524730682,
            -0.0013022032799199224,
            0.06414057314395905
          ],
          [
            0.03990120813250542,
            -0.013028033077716827,
            0.03274581581354141,
            0.2543250024318695,
            0.11485026031732559,
            -0.2358904629945755,
            0.0229622982442379,
            -0.001875120447948575,
            -0.031809817999601364,
            0.19355779886245728,
            -0.03685210272669792,
            -0.03611833229660988,
            0.12778063118457794,
            0.22586220502853394,
            0.030307330191135406,
            -0.2267829328775406,
            0.2241675853729248,
            0.15558160841464996,
            -0.22016805410385132,
            0.2462003082036972,
            0.08833189308643341,
            -0.11383712291717529,
            0.08424181491136551,
            -0.1361323595046997,
            -0.041523758322000504,
            -0.1869957000017166,
            0.004871324636042118,
            0.1756083369255066,
            0.06539726257324219,
            -0.17829562723636627,
            -0.12466421723365784,
            -0.08280082046985626,
            -0.18904735147953033,
            0.06809791922569275,
            -0.07225950807332993,
            -0.11533619463443756,
            -0.038759745657444,
            -0.0016657186206430197,
            0.05273314192891121,
            -0.021061185747385025,
            -0.11461865156888962,
            0.08525984734296799,
            -0.0877012312412262,
            0.17776842415332794
          ],
          [
            -0.1167626827955246,
            -0.03218129277229309,
            -0.06429657340049744,
            0.18127240240573883,
            0.1319836974143982,
            -0.08717840909957886,
            -0.024158896878361702,
            -0.10036000609397888,
            -0.2924879789352417,
            0.13980711996555328,
            -0.038346730172634125,
            -0.004100298974663019,
            -0.06185630336403847,
            -0.13967934250831604,
            -0.12009375542402267,
            0.03404276445508003,
            0.02612343244254589,
            -0.1507781744003296,
            0.23378221690654755,
            0.0780990719795227,
            -0.03748703375458717,
            0.1979517936706543,
            0.03931356593966484,
            -0.020475609228014946,
            0.10384569317102432,
            0.1297142654657364,
            0.17792342603206635,
            -0.2641396224498749,
            0.18898804485797882,
            -0.0605032742023468,
            0.12223661690950394,
            0.12733539938926697,
            0.13852424919605255,
            0.25936388969421387,
            -0.05833053961396217,
            0.1994027942419052,
            0.09496112167835236,
            -0.010739904828369617,
            -0.051996584981679916,
            -0.056420814245939255,
            -0.10648103803396225,
            0.2436387836933136,
            0.006339245941489935,
            0.2020834982395172
          ],
          [
            0.07164682447910309,
            -0.09784973412752151,
            -0.10646653175354004,
            -0.11914312094449997,
            0.0727819949388504,
            -0.3304905891418457,
            0.08842893689870834,
            0.17754992842674255,
            -0.21924369037151337,
            0.09012175351381302,
            0.12638944387435913,
            -0.1196998804807663,
            0.029514074325561523,
            0.05997852608561516,
            0.11998201161623001,
            0.034586064517498016,
            -0.0319841168820858,
            0.008258206769824028,
            0.22260716557502747,
            -0.00829270388931036,
            0.06530194729566574,
            -0.11983182281255722,
            0.03328041732311249,
            -0.11898655444383621,
            0.2863729000091553,
            0.07572636008262634,
            0.003956498112529516,
            0.009569094516336918,
            -0.043145667761564255,
            -0.08675210922956467,
            0.18188947439193726,
            -0.03449604660272598,
            0.01976724900305271,
            0.13816410303115845,
            0.07555330544710159,
            0.11783766746520996,
            -0.0486258789896965,
            0.010696986690163612,
            0.06586825102567673,
            0.11178688704967499,
            -0.01938740350306034,
            0.15393388271331787,
            0.1153799295425415,
            -0.03685588389635086
          ],
          [
            0.06260260194540024,
            -0.005628915969282389,
            0.18401746451854706,
            -0.15980763733386993,
            -0.11873623728752136,
            0.1345480978488922,
            0.1524568796157837,
            0.11370164155960083,
            -0.020455997437238693,
            -0.06756191700696945,
            0.063079833984375,
            -0.033791713416576385,
            -0.13193553686141968,
            0.14852076768875122,
            -0.1694219559431076,
            0.05804106965661049,
            0.08096669614315033,
            0.2151157557964325,
            0.2678608298301697,
            0.05418702960014343,
            0.06847997009754181,
            0.21715372800827026,
            -0.10044663399457932,
            0.19353540241718292,
            -0.21289518475532532,
            0.12161319702863693,
            0.025160059332847595,
            0.0773712769150734,
            0.0512508898973465,
            -0.06092403456568718,
            -0.013533225283026695,
            0.17754821479320526,
            -0.1293238252401352,
            -0.1752215474843979,
            0.11743894219398499,
            -0.07483473420143127,
            0.13045842945575714,
            0.011747362092137337,
            -0.02587422914803028,
            -0.08382360637187958,
            0.0064381323754787445,
            0.04010291025042534,
            -0.06787976622581482,
            0.05693851038813591
          ],
          [
            -0.08109478652477264,
            0.1758236140012741,
            -0.0063096447847783566,
            0.20258168876171112,
            0.12827664613723755,
            -0.24779899418354034,
            0.11523545533418655,
            0.08729586005210876,
            -0.10477244108915329,
            0.06833113729953766,
            0.09961749613285065,
            0.1863759458065033,
            -0.04022049531340599,
            -0.0725497230887413,
            -0.1055227518081665,
            -0.01017550379037857,
            0.21668027341365814,
            -0.10367576032876968,
            0.1979074776172638,
            0.07785648852586746,
            0.007391476072371006,
            -0.001313547370955348,
            -0.08377902954816818,
            0.004054047167301178,
            0.20605449378490448,
            -0.05682786554098129,
            0.016802722588181496,
            -0.24829140305519104,
            -0.035800423473119736,
            -0.025890616700053215,
            0.1500702202320099,
            -0.036493271589279175,
            0.07455917447805405,
            0.23086906969547272,
            -0.03205721452832222,
            0.0956217423081398,
            0.15541046857833862,
            0.15929920971393585,
            -0.11723077297210693,
            -0.02478441409766674,
            -0.01630844548344612,
            0.12026108056306839,
            -0.04840290546417236,
            -0.07396649569272995
          ],
          [
            0.023838387802243233,
            -0.08243191242218018,
            -0.11709622293710709,
            -0.13961288332939148,
            0.3024890422821045,
            0.0194185059517622,
            -0.0043423110619187355,
            0.23417198657989502,
            0.18851973116397858,
            -0.1627451330423355,
            0.15628938376903534,
            0.19495579600334167,
            -0.026334794238209724,
            -0.03432327136397362,
            0.22496546804904938,
            0.12365134805440903,
            -0.033769648522138596,
            -0.026556260883808136,
            0.027931902557611465,
            -0.057787347584962845,
            -0.054623741656541824,
            -0.17306025326251984,
            -0.12578541040420532,
            -0.13190217316150665,
            0.17570222914218903,
            -0.07897229492664337,
            -0.0935148373246193,
            0.06438031047582626,
            0.06068655475974083,
            -0.014541041105985641,
            -0.11319909244775772,
            0.16007886826992035,
            0.09089972078800201,
            0.027452202513813972,
            0.05961398407816887,
            0.12031185626983643,
            -0.0011300634359940886,
            -0.0763651505112648,
            -0.004077318590134382,
            0.03382919728755951,
            0.05060901492834091,
            -0.05639545992016792,
            0.06334342807531357,
            0.1338067501783371
          ]
        ],
        "biases": [
          0.04855674132704735,
          0.055541541427373886,
          0.17455646395683289,
          0.1316603571176529,
          0.09442173689603806,
          0.1073668971657753,
          0.007662506774067879,
          -0.11787132918834686,
          0.14551712572574615,
          0.13173913955688477,
          -0.09385284781455994,
          -0.06542723625898361,
          -0.04097836837172508,
          -0.08349541574716568,
          0.03389253839850426,
          -0.009320748969912529,
          -0.08104062080383301,
          -0.04593173786997795,
          0.2007269710302353,
          0.09993040561676025,
          0.04679929092526436,
          0.1584756225347519,
          -0.04474140703678131,
          -0.030442921444773674,
          0.012798834592103958,
          -0.08572307229042053,
          0.04134739190340042,
          0.06903446465730667,
          0.1996181160211563,
          0.1500607132911682,
          -0.08162188529968262,
          0.0877823606133461,
          0.09906961768865585,
          0.1711750328540802,
          0.05708453804254532,
          0.03699086979031563,
          0.12041348218917847,
          0.008843622170388699,
          -0.09436862915754318,
          0.011751447804272175,
          0.12023330479860306,
          -0.027064038440585136,
          -0.020454207435250282,
          0.1425844132900238,
          0.18980661034584045,
          -0.0303212758153677,
          -0.007873167283833027,
          0.012723291292786598,
          -0.003318697912618518,
          0.0675407350063324,
          0.1321689784526825,
          -0.0688830316066742,
          0.08368303626775742,
          0.07614604383707047,
          -0.040225788950920105,
          0.14785128831863403,
          0.17781880497932434,
          -0.10389579087495804,
          0.08568759262561798,
          0.1873491406440735,
          0.08899994939565659,
          -0.042792681604623795,
          0.12392884492874146,
          -0.05131874978542328
        ],
        "activation": "relu",
        "scale_in": 0.007874015748031496,
        "scale_w": 0.0032939242096397823,
        "scale_out": 0.007874015748031496,
        "weights_int8": [
          [
            -64,
            72,
            10,
            -39,
            -12,
            22,
            -15,
            -4,
            24,
            -62,
            -14,
            86,
            -19,
            11,
            -6,
            75,
            -58,
            67,
            28,
            -16,
            57,
            41,
            4,
            38,
            -56,
            33,
            -45,
            35,
            73,
            -2,
            7,
            -1,
            -32,
            -44,
            52,
            -4,
            51,
            -4,
            46,
            -12,
            -10,
            -20,
            14,
            10
          ],
          [
            -65,
            30,
            -40,
            38,
            -46,
            -94,
            32,
            -51,
            -71,
            25,
            -46,
            71,
            26,
            -32,
            -53,
            56,
            69,
            -9,
            -25,
            41,
            -13,
            93,
            -39,
            -36,
            -14,
            32,
            -6,
            4,
            46,
            12,
            42,
            -11,
            18,
            49,
            56,
            28,
            60,
            50,
            20,
            40,
            18,
            45,
            50,
            -2
          ],
          [
            -22,
            63,
            127,
            -4,
            -7,
            109,
            39,
            -69,
            17,
            -52,
            -96,
            14,
            -27,
            19,
            -10,
            45,
            -56,
            25,
            54,
            8,
            3,
            40,
            13,
            12,
            -61,
            -5,
            -39,
            9,
            -29,
            29,
            24,
